svm_type c_svc
kernel_type rbf
gamma 0.125
nr_class 28
total_sv 4177
rho 0.55745630919348133 0.84476405954054712 0.99042981005838349 0.33203680719816364 -0.97692231079056924 -0.73965160597468094 -0.99975347903616796 1.0219631039305577 0.98574733983796248 1.0087400970923674 -0.90570352544192068 1.0014364898084582 0.42411916821076967 0.059949547052383423 0.69978331049679587 -0.98331253144672504 -0.68672998381949091 -0.99738560836993118 -0.80822640657424927 0.0071324353934998433 -1.0093154829463213 -0.98476093544658283 -1.0099468959660471 -0.85971817374229431 -0.99844913286926484 -1.0131846569980669 -1.0014884187027737 -0.0029993221068813042 -0.67208057098589247 -0.14004104486848304 -0.13790881643703812 -0.22998807716295172 -0.10301834832000234 -0.3909678855485873 -0.29985562827294965 -0.72977136202503223 -0.074374607665971329 -0.49563698200324185 -0.23189621470307062 -0.29149153406479344 0.16386871306427689 -0.29258957433867389 -0.41551424912737356 -0.91068925105342557 -0.96237143874168396 -0.72431880235671997 -1.0097407124278006 -0.80248456759397324 -0.9773707389831543 -0.98672196269035339 -0.86677179485559464 -1.0110631883144374 -0.88275954127311707 0.25383969187705308 0.47419498364094315 -0.8646207679971738 -0.66836969472086394 -0.94905300136074289 -0.67711826972683287 0.75381602869196473 0.1292695172165165 -0.78247060782545907 -0.40333185422188556 -0.099897671415615119 -0.068358917975599218 0.085033346396226894 -0.8785098649998625 -0.68680864367677574 -0.98705787375186427 -0.9371064305305481 -0.1998510062694549 -1.0126319103427617 -0.97097212367659647 -1.0043215944476147 -0.96908876299858093 -0.95785681066435813 -1.0101229143693027 -0.98094353508980026 0.63089309010228412 -1.0083188920642099 -0.96879482923691562 -1.0057725015782646 -0.94139683277122055 0.18083455722771799 -0.77132578648761474 -0.94760230888214658 -0.96167576949425171 0.25146592235254428 0.072762817144394004 0.69559621972063879 -0.98854828766599967 -0.92747719489913594 -1.0119475096077941 -0.91236883401870728 -0.15351094043888702 -1.0097964782531481 -0.99400540859615172 -1.0143253043237477 -0.95069032907485962 -1.0023616448012904 -1.0212432882717253 -1.0499435179993413 -0.65228157285781674 -0.2303752040513255 -0.79883571384477092 -0.1205246169885002 0.86073719927116288 0.28127625334919842 -0.45399023596918819 0.1551134363265885 -0.10265376047866051 -0.059745769067327738 0.48918570424631874 -0.77164983741054527 -0.303187588487979 -1.0024828618119999 -0.9508221447467804 -0.42345952987670898 -1.0076067334979311 -0.92900923345787134 -0.99785851550427085 -0.97900539636611938 -0.89243146032094955 -1.0067073572403247 -0.95897107522088276 1.011512745470968 0.91761438076394841 1.0112323384178001 0.99113526889926518 1.0221528883493598 1.0383074425525278 0.99655812847714009 0.20973579743935034 0.17540948918792906 0.31459711227283271 -0.98525440384041896 1.0018911028083659 -0.99422487792678604 -0.68329458510599272 0.22554082668035938 -1.0064434323376594 -0.95904621489721575 -1.0044379277927602 -0.72949115036049461 -1.0116193901068899 -1.0098148532747575 -1.0280255422163098 -0.99787230726162124 0.97095206221679575 0.93291227241232755 0.96392354457542639 -0.95806055523672429 0.93179218806129283 0.39831235067907705 0.42857171956351325 0.25861972852453974 -1.0015113609747472 -0.72574430545770896 -1.0108112053891327 -0.79376885294914246 0.23591122031211847 -1.0098400997492292 -0.98604109919596661 -1.0016688499329045 -0.85174062848091125 -1.013995034001854 -1.0203182765105472 -1.022629727213999 1.0088884917960934 1.0037669036406567 1.0036843670371229 0.99902860577160679 0.99779819875753173 0.33199281521939161 0.28333241123497577 0.25025493083627809 -0.94063369038401867 0.97812643305803704 -0.99557178450616168 -0.77889357507228851 0.1411862324292201 -1.0049804483746509 -0.98371604342533714 -1.0070806610247842 -0.83231049776077271 -0.98292407596147757 -1.0079044172138985 -0.99444635974041484 0.94858587687662455 0.96597294736777028 -0.95881022709833086 0.93388122881328228 0.28543604883003454 0.18600861951073791 0.56834509412450085 -0.99816963549537308 -0.96411515469349118 -1.0128761871956347 -0.86285793040810954 0.067772464571186214 -1.0094919228993535 -1.0048998523801584 -1.0264594046287348 -0.89889050230633483 -0.98786632970173482 -1.0178069143648725 -1.02164774098915 -0.95109315841550779 -0.92887369320583313 -0.9587606163574306 0.11514473367829327 -0.088573984661396432 0.81396022643786292 -0.98134024632527017 -0.93183911216964554 -1.0057473944881949 -0.91553401523022426 -0.25353410840034485 -1.0162160733578178 -0.99734367511928013 -1.0098698831195654 -0.94972726702690125 -0.98758066974065206 -1.0153115019180918 -0.99653977459566201 -0.96354040784691586 -0.71402068648853667 0.51652940735220909 0.2383284501277961 0.95048268939227365 -1.0125907984992741 -0.97677009826235306 -1.0208648927601069 -0.90140401677413695 -0.11772045625651474 -1.0095416801283619 -1.0031373951153328 -1.0188066715759865 -0.9309669067572317 -1.0158151409967298 -1.0123975459201335 -1.0298870009061478 0.93855687343708594 0.3115361320658806 0.26128005981445312 0.21661334298019261 -1.0088678907370807 0.92343619414752176 -1.0064640111731449 -0.79390566051006317 0.17062602819189643 -1.0142156983811934 -0.99284343103759909 -1.0118271781045003 -0.8472086489200592 -1.0267448001927773 -1.0166068263660928 -1.0309940596172076 0.55312267726936892 0.29347243715640076 0.98345692073636826 -0.98611427988855116 -0.92058963030647301 -1.0116973487485139 -0.91360556694050121 0.1354388898566998 -1.0097527533911779 -0.99670247854832772 -1.0105751043164855 -0.94772481918334961 -0.97241945426259913 -1.0078782644006199 -1.0253065306938278 -0.71066432861385931 0.12088063359260556 -0.39269966758727076 -0.37599024537018416 -0.3684863587597802 -0.99029499292373657 -0.95877609751886839 -0.86811220645904541 -0.4169322625807883 -0.72951969504356406 -0.99957361817359924 -0.40171682834625244 -0.85802733898162842 -0.29156416654586792 0.20914146304130543 -0.36869729177049321 -0.37017999013463437 -0.37986618228627606 -0.9936586320400238 -1.0098629514457214 -0.79261226952075958 -0.42775100384474718 -0.63779053092002869 -1.003302127122879 -0.26956374198198318 -0.77138671278953552 -0.16174797713756556 -0.24774245786612206 -0.28345179557800293 -0.70895034074783325 -0.98227199912071228 -0.85135465860366821 -1.0159051020992977 -0.60957884788513184 -0.94434547424316406 -0.99811351299285889 -0.76730579236734664 -1.0120318491961979 -0.7708723247051239 0.98887752792170569 -1.01305416442386 -0.6681264340877533 0.29081078484680017 -1.029385210599306 -0.89660899436588459 -0.99874418973922729 -0.73040777444839478 -0.95159054580462077 -1.0243168040722404 -1.004170262410957 -1.0073639774630321 -0.71607471233996434 0.23159739367291063 -1.0116486162851626 -0.98968994208105965 -1.0055387328790473 -0.75523986046492597 -1.0220461301042731 -1.0102736149942686 -1.0234243956531972 -0.55199773609638214 0.35799375031142183 -1.0202660560607912 0.9654628536047889 -0.99112001061439525 -0.60188707709312439 -0.93277564186906503 -1.020342081785202 -0.97691211104393005 0.99607568979263306 0 0.59924257174134254 0 0 0.41480756551027298 0 0.27400948107242584 -0.69222383201122284 -0.33905357122421265 -0.53792880475521088 -1.0027523338794708 -0.19571483135223389 -0.66389009356498718 -0.11586863576422816 1.0024016611582975 0 0 0.95524856448173523 0 0.9132307767868042 -1.0526573956012724 -0.64348238706588745 -0.9410090057310373 -1.0107071101665495 -1.0660695630437955 0 0.99080365896224976 0 0.98816654086112976 0.45035659521818161 0 0.30675346404314041 -1.0134122967720032 -0.059663444757461548 0.96825122833251953
label 15 7 9 10 8 20 16 19 14 11 12 18 13 5 4 6 21 17 22 1 3 26 23 29 2 27 25 24
nr_sv 103 391 689 634 568 26 67 32 126 487 267 42 203 115 57 259 14 58 6 1 15 1 9 1 1 2 1 2
SV
1 1 1 1 0 0.28735678259813291 0 1 1 1 0 1 1 1 1 0 1 0 0 1 0 0 0 0 0 0 0 1:-1 2:0.027027 3:0.0420168 4:-0.831858 5:-0.63733 6:-0.699395 7:-0.735352 8:-0.704036 
1 1 1 1 0 0 0.8708569530339022 1 1 1 0 1 0 0 0 0 0 0 0 0 0 0 0 0 0 0 0 1:-1 2:0.432432 3:0.411765 4:-0.681416 5:-0.338056 6:-0.471419 7:-0.424621 8:-0.415047 
0 1 1 1 1 1 0.88951898804373597 1 1 1 1 1 0 0 0 0 1 0.022858370314232039 0 0 0 0.28853730868022243 0.6025278770261614 0 0 0 0 2:0.635135 3:0.697479 4:-0.707965 5:0.159554 6:-0.186954 7:-0.262673 8:-0.0861983 
1 1 1 1 0 0 0 1 1 1 0 1 0 0 0 0 0 0 0 0 0 0 0 0 0 0 0 2:0.418919 3:0.411765 4:-0.734513 5:-0.287763 6:-0.406187 7:-0.419355 8:-0.444943 
1 1 1 1 0 0 1 1 1 1 0 1 0 0 1 0 0 0 0 0 0 0 0 0 0 0 0 1:-1 2:0.324324 3:0.243697 4:-0.761062 5:-0.426598 6:-0.542703 7:-0.560237 8:-0.494768 
0 1 1 1 0 1 0 1 1 1 0.27840160152634752 1 0 0 0 0 1 0 0 0 0 0 0 0 0 0 0 1:-1 2:0.675676 3:0.697479 4:-0.663717 5:0.0568443 6:-0.210491 7:-0.0994075 8:-0.0363727 
1 1 1 1 0 0 0 1 1 1 0 1 0 0 1 0 0 0 0 0 0 0 0 0 0 0 0 1:-1 2:0.283784 3:0.277311 4:-0.743363 5:-0.404285 6:-0.560188 7:-0.497038 8:-0.494768 
1 1 1 1 1 1 0.84979324311200877 1 1 1 0 1 0 0 0 0 1 0 0 0 0 0.245853453947951 0 0 0 0 0 1:-1 2:0.22973 3:0.277311 4:-0.716814 5:-0.375952 6:-0.576328 7:-0.569454 8:-0.335326 
1 1 1 1 0 0 0 1 1 1 0 1 0 0 0 0 0 0 0 0 0 0 0 0 0 0 0 1:-1 2:0.391892 3:0.411765 4:-0.743363 5:-0.255534 6:-0.407532 7:-0.311389 8:-0.355257 
1 1 1 1 0 0 0.23128974789500001 1 1 1 0 1 0 0 0 0 0 0 0 0 0 0 0 0 0 0 0 1:-1 2:0.310811 3:0.327731 4:-0.716814 5:-0.348327 6:-0.420309 7:-0.532587 8:-0.484803 
1 1 1 1 0 1 1 1 1 1 0.58122227845210839 1 0 0 1 0 1 0 0 0 0 0 0 0 0 0 0 2:0.22973 3:0.210084 4:-0.716814 5:-0.446786 6:-0.60659 7:-0.585253 8:-0.514699 
1 1 1 1 0.76705515464296503 1 0 1 1 1 1 1 0 0 0 0 1 0 0 0 0 0 0 0 0 0 0 2:0.351351 3:0.361345 4:-0.672566 5:-0.226492 6:-0.398117 7:-0.429888 8:-0.315396 
0.38234487711745918 1 1 1 0 0 0 1 1 1 0 1 0 0 0 0 0 0 0 0 0 0 0 0 0 0 0 1:-1 2:0.418919 3:0.478992 4:-0.707965 5:-0.122012 6:-0.349025 7:-0.270573 8:-0.325361 
1 1 1 1 1 1 0 1 1 1 0 1 0 0 0 0 1 0 0 0 0 0 0 0 0 0 0 1:-1 2:0.310811 3:0.327731 4:-0.690265 5:-0.285284 6:-0.485541 7:-0.457538 8:-0.265571 
0 1 1 1 0 1 1 1 1 1 0.19370419250034476 1 0 0 0 0 1 0 0 0 0 0 0 0 0 0 0 2:0.513514 3:0.512605 4:-0.699115 5:0.000885426 6:-0.187626 7:-0.219223 8:-0.275536 
0 1 1 1 0 1 0 1 1 1 1 1 0 0 0 0 1 0 0 0 0 0 0 0 0 0 0 1:-1 2:0.5 3:0.512605 4:-0.60177 5:0.0788029 6:-0.248151 7:-0.123107 8:-0.106129 
1 1 1 1 1 1 1 1 1 1 1 1 0 0 1 0.79874759984095467 1 0 0 0 0 0.53885812141070433 0 0 0 0 0 2:0.243243 3:0.210084 4:-0.672566 5:-0.405348 6:-0.579018 7:-0.583937 8:-0.405082 
1 1 1 1 0 0 0 1 1 1 0 1 0 0 0 0 0 0 0 0 0 0 0 0 0 0 0 1:-1 2:0.445946 3:0.411765 4:-0.707965 5:-0.210908 6:-0.425689 7:-0.420671 8:-0.375187 
1 1 1 1 0 0 0 1 1 1 0 1 0 0 0 0 0 0 0 0 0 0 0 0 0 0 0 2:0.324324 3:0.327731 4:-0.654867 5:-0.290597 6:-0.455279 7:-0.341672 8:-0.434978 
1 1 1 1 1 1 0 1 1 1 0.50858678391816003 1 0 0 0 0 1 0 0 0 0.05398983580197167 0 0 0 0 0 0 1:-1 2:0.324324 3:0.378151 4:-0.690265 5:-0.296618 6:-0.477471 7:-0.519421 8:-0.265571 
0 1 1 1 0 1 0.22281063991734845 1 1 1 0.24561036555112004 1 0 0 0 0 0 0 0 0 0 0.23476665357752619 0 0 0 0 0 1:-1 2:0.432432 3:0.394958 4:-0.681416 5:-0.193554 6:-0.496301 7:-0.262673 8:-0.235675 
1 1 1 1 0 0.79550071304286363 0 1 1 1 0 1 0 0 0 0 0 0 0 0 0 0 0 0 0 0 0 1:-1 2:0.391892 3:0.495798 4:-0.707965 5:-0.219054 6:-0.387357 7:-0.362739 8:-0.325361 
1 1 1 1 0 1 1 1 1 1 0.9786910470020358 1 0 0 0 1 1 0 0 0 0 0 0 0 0 0 0 2:0.472973 3:0.394958 4:-0.752212 5:-0.270055 6:-0.516476 7:-0.411455 8:-0.285501 
0 1 1 1 0 1 0 1 1 1 0 1 0 0 0 0 1 0 0 0 0 0 0 0 0 0 0 2:0.527027 3:0.630252 4:-0.690265 5:-0.136533 6:-0.3154 7:-0.319289 8:-0.22571 
1 1 1 1 0 0 0 1 1 1 0.073172161769076163 1 0 0 0 0 0 0 0 0 0 0 0 0 0 0 0 1:-1 2:0.337838 3:0.378151 4:-0.778761 5:-0.400035 6:-0.492266 7:-0.536537 8:-0.524664 
0 1 1 1 0 1 0 1 1 1 0 1 0 0 0 0 0 0 0 0 0 0 0 0 0 0 0 2:0.486486 3:0.546218 4:-0.734513 5:-0.122012 6:-0.297243 7:-0.194207 8:-0.285501 
0 1 1 1 0 1 0 1 1 1 0 1 0 0 0 0 1 0 0 0 0.063582301860652155 0 0 0 0 0 0 1:-1 2:0.567568 3:0.596639 4:-0.690265 5:-0.106428 6:-0.34768 7:-0.307439 8:-0.175884 
1 1 1 1 0 1 0.62642230543389132 1 1 1 0 1 0 0 0 0 0 0 0 0 0 0 0 0 0 0 0 2:0.486486 3:0.495798 4:-0.734513 5:-0.326368 6:-0.537996 7:-0.412772 8:-0.395117 
1 1 1 1 1 1 1 1 1 1 1 1 0 0 0 0.91623465888937694 1 1 0 0 0 0.98132197145433231 0 0 0 0.19219595120998872 0 2:0.472973 3:0.394958 4:-0.60177 5:-0.211617 6:-0.492939 7:-0.436471 8:-0.285501 
1 1 1 1 0 0 0 1 1 1 0 1 0 0 0 0 0 0 0 0 0 0 0 0 0 0 0 1:-1 2:0.418919 3:0.394958 4:-0.690265 5:-0.2187 6:-0.347007 7:-0.350889 8:-0.375187 
1 1 1 1 0.43474377901749295 1 0.62864681102159181 1 1 1 0.4152606932675223 1 0 0 0 0 1 0 0 0 0.19600604869743138 0.27769889533776182 0 0 0 0 0 1:-1 2:0.378378 3:0.344538 4:-0.60177 5:-0.254117 6:-0.488231 7:-0.419355 8:-0.275536 
1 1 1 1 0 0 0 1 1 1 0.041096364964672671 1 1 0 1 0 0 0 0 0 0 0 0 0 0 0 0 2:0.148649 3:0.0756303 4:-0.752212 5:-0.573579 6:-0.675857 7:-0.628703 8:-0.646238 
1 1 1 1 0 1 0 1 1 1 0.45365738045222126 1 1 1 1 0.40121377462478286 1 0.25482022257440917 0.18184646578317887 1 0 0 0 0.14810712779882798 0 0 0 1:-1 2:-0.0675676 3:-0.092437 4:-0.79646 5:-0.79706 6:-0.866846 7:-0.851218 8:-0.776781 
1 1 1 1 0.22314821464014956 1 0.13507681661999071 1 1 1 1 1 1 1 1 0.41350601234522411 1 0 0.81815353421682113 1 0 0.026804145196643446 0 0.85189287220117205 0 0 0 1:1 2:0.0135135 3:-0.00840336 4:-0.743363 5:-0.629538 6:-0.720915 7:-0.737986 8:-0.673144 
1 1 1 1 0 0.40652663184803645 0 1 1 1 0 1 1 1 1 0 0 0 0 1 0 0 0 0 0 0 0 1:1 2:0.0540541 3:0.0252101 4:-0.814159 5:-0.648663 6:-0.713517 7:-0.695853 8:-0.723966 
1 1 1 1 0 1 0 1 1 1 0 1 1 0 1 0 0 0 0 0 0 0 0 0 0 0 0 2:0.108108 3:0.092437 4:-0.734513 5:-0.572871 6:-0.7115 7:-0.632653 8:-0.644245 
1 1 1 1 0 0 0 1 1 1 0 1 0 0 0 0 0 0 0 0 0 0 0 0 0 0 0 1:-1 2:0.324324 3:0.294118 4:-0.672566 5:-0.357535 6:-0.538668 7:-0.389072 8:-0.494768 
1 1 1 1 1 1 0.97986805290469792 1 1 1 1 1 0 0 0 1 1 0 0 0 0 0 0 0 0 0 0 1:-1 2:0.297297 3:0.294118 4:-0.734513 5:-0.227909 6:-0.441829 7:-0.443055 8:-0.125062 
1 1 1 1 0 0 0 1 1 1 0 1 0 0 0 0 0 0 0 0 0 0 0 0 0 0 0 1:-1 2:0.216216 3:0.193277 4:-0.769912 5:-0.300159 6:-0.481506 7:-0.361422 8:-0.415047 
1 1 1 1 0 0 0 1 1 1 0 1 0 0 1 0 0 0 0 0 0 0 0 0 0 0 0 2:0.202703 3:0.159664 4:-0.787611 5:-0.539933 6:-0.650303 7:-0.470704 8:-0.674141 
1 1 1 1 0 1 0 1 1 1 0 1 0 0 1 0 0 0 0 0 0 0 0 0 0 0 0 1:-1 2:0.202703 3:0.159664 4:-0.787611 5:-0.418452 6:-0.600538 7:-0.526004 8:-0.474838 
0 1 1 1 0 0.15761234194125101 0.76929369682098447 1 1 1 0 1 0 0 0 0 1 0 0 0 0 0.034940673066753747 0 0 0 0 0 1:-1 2:0.675676 3:0.546218 4:-0.690265 5:0.072782 6:-0.223941 7:0.0796577 8:-0.22571 
0 1 1 1 1 1 0.51230388994942566 1 1 1 1 1 0 0 0 0.0052465383018462861 1 1 0 0 0 0.11960697999359778 0 0 0 0 0 2:0.432432 3:0.478992 4:-0.663717 5:0.0164689 6:-0.370545 7:-0.302172 8:-0.18585 
1 1 1 1 1 1 0.62461469460303032 1 1 1 1 1 0 0 0 0.025804007878120285 1 0.017347137134541286 0 0 0 0.043730998050087615 0 0 0 0 0 1:-1 2:0.337838 3:0.260504 4:-0.787611 5:-0.249513 6:-0.533289 7:-0.561554 8:-0.385152 
1 1 1 1 0.20622952391679458 0 0.64750227189091314 1 1 1 1 1 0 0 0 0 1 0 0 0 0 0.02541174361078959 0 0 0 0 0 1:-1 2:0.378378 3:0.176471 4:-0.734513 5:-0.111387 6:-0.416274 7:-0.469388 8:-0.355257 
1 1 1 1 0 0 0 1 1 1 0.65303990284827895 1 0 0 1 0 0 0 0 0 0 0 0 0 0 0 0 1:-1 2:0.162162 3:0.109244 4:-0.743363 5:-0.521516 6:-0.683927 7:-0.529954 8:-0.604385 
1 1 1 1 0 1 0.10680703815726397 1 1 1 0 1 1 0.99506027650844209 1 0 0.40712320227327442 0 0 0.26660301656561791 0 0 0 0 0 0 0 1:-1 2:0.0540541 3:-0.00840336 4:-0.752212 5:-0.593767 6:-0.73033 7:-0.605003 8:-0.624315 
1 1 1 1 0 1 0.13066063832949373 1 1 1 0 1 1 1 1 0.064436525981394877 1 0 0 0 0 0.8161351381114248 0 0 0 0 0 2:0.0675676 3:0.0252101 4:-0.743363 5:-0.621038 6:-0.769334 7:-0.639236 8:-0.61435 
1 1 1 1 0 0.83726596374720996 1 1 1 1 0.2572962655546871 1 0 0 0 0 0 0 0 0 0 0.0055074516428809533 0 0 0 0 0 1:-1 2:0.283784 3:0.210084 4:-0.690265 5:-0.263326 6:-0.558171 7:-0.389072 8:-0.424016 
1 1 1 1 0 1 0.56409470251090199 1 1 1 0.42055296151874322 1 0 0 1 0 0 0 0 0 0 0 0 0 0 0 0 1:-1 2:0.189189 3:0.176471 4:-0.743363 5:-0.50912 6:-0.712172 7:-0.57077 8:-0.536622 
1 1 1 1 0 1 0.45306940219138769 1 1 1 0 1 0 0 1 0 0.72193632691419107 0 0 0 0 1 0 0 0 0 0 2:0.0945946 3:0.159664 4:-0.778761 5:-0.463786 6:-0.715535 7:-0.529954 8:-0.524664 
0 1 1 1 0 1 0.30846095635591042 1 1 1 1 1 0 0 0 0.23423592113366595 1 0 0 0 0.10091676799467125 0 0 0 0 0 0.15895321970983206 1:-1 2:0.581081 3:0.596639 4:-0.699115 5:-0.0164689 6:-0.207128 7:-0.443055 8:-0.100149 
0 1 1 1 0 1 1 1 1 1 0 1 0 0 0 0 1 0 0 0 0 0 0 0 0 0 0 1:-1 2:0.527027 3:0.714286 4:-0.59292 5:0.0759695 6:-0.135171 7:-0.0217248 8:-0.193822 
0 1 1 1 0.81934393899832625 1 1 1 1 1 1 1 0 0 0 0 1 0 0 0 0 1 0.12867216517249502 0 0 0 0 2:0.689189 3:0.613445 4:-0.690265 5:0.254471 6:-0.0860794 7:0.262673 8:0.017439 
0 1 1 1 1 1 0 1 1 1 1 1 0 0 0 0 1 0 0 0 0 0 0 0 0 0 0 1:-1 2:0.472973 3:0.478992 4:-0.654867 5:0.0713653 6:-0.222596 7:-0.0901909 8:0.0323866 
0 1 1 1 1 1 0.72574697462631177 1 1 1 1 1 0 0 0 1 1 0 0 0 0 0.48778760091068885 0 0 0.57573569330238761 0.22842250871660805 0.98477890280125624 2:0.621622 3:0.663866 4:-0.681416 5:0.194617 6:-0.245461 7:-0.0256748 8:0.192825 
1 1 1 1 0 1 1 1 1 1 0.73077146717642161 1 0 0 0 0 1 0.056470953846913648 0 0 0 0 0 0 0 0 0 2:0.405405 3:0.428571 4:-0.646018 5:-0.310784 6:-0.519839 7:-0.465438 8:-0.325361 
0 1 1 1 0.16724394469953877 1 0 1 1 1 1 1 0 0 0 0.45230938654905406 1 0.94700823062834405 0 0 0 0 0 0 0 0 0 1:-1 2:0.540541 3:0.478992 4:-0.672566 5:0.0564902 6:-0.293208 7:-0.267939 8:-0.0961634 
1 1 1 1 0 1 0 1 1 1 1 1 0 0 0 0 1 0 0 0 0 0 0 0 0 0 0 2:0.310811 3:0.277311 4:-0.672566 5:-0.217992 6:-0.433759 7:-0.360105 8:-0.345291 
0 1 1 1 1 1 0.12502452975692702 1 1 1 1 1 0 0 0 1 1 0 0 0 0 0 0 0 0 0.37919396998814991 0 2:0.445946 3:0.428571 4:-0.690265 5:-0.245263 6:-0.475454 7:-0.432521 8:-0.165919 
0 1 1 1 1 1 0 1 1 1 1 1 0 0 0 1 1 0.25407639913310126 0 0 0 0 0 0 0.51927815791289345 0.010247261359354569 0.36689609509023408 1:-1 2:0.513514 3:0.529412 4:-0.628319 5:0.130512 6:-0.122394 7:-0.254773 8:0.152965 
0 1 1 1 1 1 0.67922920349144389 1 1 1 1 1 0 0 0 1 1 0.58216413710117743 0 0 0 0.52255328360242992 0.046852520557275922 0 0.57572254882568963 0 0.48937178239867768 1:-1 2:0.675676 3:0.731092 4:-0.646018 5:0.43864 6:0.00874243 7:0.119157 8:0.362232 
1 1 1 1 0 0.49275443226425319 0 1 1 1 0 1 0 0 1 0 0 0 0 0 0 0 0 0 0 0 0 2:0.162162 3:0.142857 4:-0.743363 5:-0.539933 6:-0.63887 7:-0.59842 8:-0.59442 
1 1 1 1 0 0 0 1 1 1 0 1 0 0 1 0 0 0 0 0 0 0 0 0 0 0 0 2:0.216216 3:0.243697 4:-0.743363 5:-0.435098 6:-0.551446 7:-0.450955 8:-0.524664 
1 1 1 1 1 1 0.9608518782651867 1 1 1 1 1 1 1 1 0.39332573551996136 1 0 0 0.70606224087718827 0 0.0018886352760122307 0 0 0.17219765539958631 0 0 1:1 2:0.0945946 3:0.12605 4:-0.743363 5:-0.588808 6:-0.68998 7:-0.682686 8:-0.494768 
1 1 1 1 1 1 1 1 1 1 1 1 0 0 0 1 0.41924731483260241 1 0 0 0.46118806472551921 1 0 0 0 0 0 1:-1 2:0.391892 3:0.361345 4:-0.725664 5:-0.35966 6:-0.561533 7:-0.61027 8:-0.335326 
1 1 1 1 0 0.81216639371545885 0 1 1 1 0 1 0 0 0 0 0 0 0 0 0 0 0 0 0 0 0 2:0.418919 3:0.394958 4:-0.646018 5:-0.271117 6:-0.474109 7:-0.465438 8:-0.425012 
0 1 1 1 0.95447739039749657 1 0 1 1 1 1 1 0 0 0 1 1 0 0 0 0.12431698091975438 0 0 0 0 0 0 1:-1 2:0.554054 3:0.647059 4:-0.716814 5:-0.121303 6:-0.346335 7:-0.221856 8:-0.0463378 
1 1 1 1 0.47542167065103819 1 0 1 1 1 0.79618203968735057 1 0 0 1 0 1 0 0 0 0 0 0 0 0 0 0 1:1 2:0.297297 3:0.344538 4:-0.699115 5:-0.403931 6:-0.585743 7:-0.499671 8:-0.405082 
1 1 1 1 0 0.29362743494062304 0 1 1 1 0.21602692129382714 1 0 0 1 0 1 0 0 0 0 0 0 0 0 0 0 1:1 2:0.567568 3:0.546218 4:-0.743363 5:-0.115991 6:-0.293208 7:-0.25609 8:-0.375187 
1 1 1 1 0 1 0 1 1 1 0.5442037396294801 1 0 0 1 0 1 0 0 0 0 0 0 0 0 0 0 1:1 2:0.472973 3:0.445378 4:-0.699115 5:-0.145741 6:-0.355077 7:-0.199473 8:-0.345291 
1 1 1 1 0 1 0 1 1 1 0 1 1 0 1 0 1 0.028989941207812418 0 0 0 0 0 0 0 0 0 1:1 2:0.202703 3:0.210084 4:-0.716814 5:-0.579954 6:-0.718225 7:-0.627386 8:-0.484803 
1 1 1 1 0 1 0.19877318835498459 1 1 1 0 1 0.55984832485512681 0 1 0 0.023366059505145781 0 0 0 0 0 0 0 0 0 0 1:-1 2:0.121622 3:0.12605 4:-0.761062 5:-0.582079 6:-0.675857 7:-0.748519 8:-0.63727 
1 1 1 1 0 0 0 1 1 1 0 1 0 0 1 0 0 0 0 0 0 0 0 0 0 0 0 2:0.202703 3:0.159664 4:-0.769912 5:-0.559058 6:-0.712172 7:-0.457538 8:-0.664175 
1 1 1 1 0.73267455575035723 1 0.90559760190702432 1 1 1 0.15222796305304867 1 0 0 1 0 0 0.004738524887857757 0 0 0 0.75876500589907492 0 0 0 0 0 1:-1 2:0.135135 3:0.159664 4:-0.752212 5:-0.450682 6:-0.73033 7:-0.527321 8:-0.504733 
0 1 1 1 0.60837192335242862 1 0.97647870401100223 1 1 1 1 1 0 0 0 0 1 0 0 0 0 0 0 0 0 0 0 1:-1 2:0.581081 3:0.613445 4:-0.646018 5:0.267222 6:-0.0154674 7:-0.163924 8:0.0732436 
0 1 1 1 0 1 1 1 1 1 0 1 0 0 0 0 1 0 0 0 0 0 0 0 0 0 0 1:-1 2:0.554054 3:0.563025 4:-0.654867 5:0.185762 6:-0.069267 7:0.15734 8:-0.0662681 
0 1 1 1 0 1 0.3253603723211857 1 1 1 0 1 0 0 0 0 0.63784465667865253 0 0 0 0 0 0 0 0 0 0 1:-1 2:0.527027 3:0.462185 4:-0.752212 5:-0.155658 6:-0.403497 7:-0.374589 8:-0.255605 
1 1 1 1 0 0 0 1 1 1 0 1 0 0 0 0 0 0 0 0 0 0 0 0 0 0 0 1:-1 2:0.432432 3:0.462185 4:-0.725664 5:-0.1847 6:-0.324815 7:-0.341672 8:-0.415047 
1 1 1 1 0 0 0 1 1 1 0 1 0 0 0 0 0 0 0 0 0 0 0 0 0 0 0 1:-1 2:0.432432 3:0.394958 4:-0.79646 5:-0.212325 6:-0.473436 7:-0.235023 8:-0.385152 
1 1 1 1 0 0 0 1 1 1 0.46899254204846291 1 0 0 1 0 0 0 0 0 0 0 0 0 0 0 0 2:0.162162 3:0.193277 4:-0.761062 5:-0.536037 6:-0.609953 7:-0.651086 8:-0.61435 
0 1 1 1 1 1 0 1 1 1 1 1 0 0 0 1 1 0 0 0 0 0 0 0 0 0 0 2:0.594595 3:0.596639 4:-0.672566 5:-0.0129272 6:-0.38803 7:-0.15734 8:-0.0264076 
1 1 1 1 0 1 0.89565532054857244 1 1 1 0.66251601030311236 1 1 1 1 0 0.29165286707009663 0 0 1 0 0 0 0 0 0 0 1:1 2:0.0945946 3:0.092437 4:-0.778761 5:-0.630954 6:-0.718225 7:-0.726136 8:-0.65421 
0 1 1 1 0.020882874910612421 1 1 1 1 1 1 1 0 0 0 0 1 0 0 0 0 0 0.057935948289830716 0 0 0 0 2:0.662162 3:0.630252 4:-0.672566 5:0.111741 6:-0.0685945 7:-0.163924 8:-0.0662681 
1 1 1 1 0 0.91718930590217052 0.13256923836719886 1 1 1 0 1 0 0 0.79610702537396139 0 0 0 0 0 0 0 0 0 0 0 0 1:-1 2:0.297297 3:0.277311 4:-0.761062 5:-0.39366 6:-0.494284 7:-0.583937 8:-0.425012 
0 1 1 1 0 1 0 1 1 1 0.54990212971512542 1 0 0 0 0 1 0 0 0 0 0 0 0 0 0 0 1:-1 2:0.513514 3:0.428571 4:-0.663717 5:0.0377191 6:-0.217888 7:-0.203423 8:-0.165919 
0 1 1 1 0 1 0 1 1 1 0 1 0 0 0 0 1 0 0 0 0 0 0 0 0 0 0 2:0.445946 3:0.478992 4:-0.663717 5:-0.142199 6:-0.37727 7:-0.195523 8:-0.275536 
1 1 1 1 0.45604373514190066 1 0.54691325668122703 1 1 1 1 1 1 0 1 0 1 0.83152608317161092 0 0 0 0.25236223916595296 0 0 0.157065944559443 0 0 2:0.0540541 3:0.12605 4:-0.752212 5:-0.607933 6:-0.714862 7:-0.718236 8:-0.574489 
1 1 1 1 0 0 0 1 1 1 0 1 0 0 0 0 0 0 0 0 0 0 0 0 0 0 0 2:0.432432 3:0.411765 4:-0.743363 5:-0.279972 6:-0.369872 7:-0.408822 8:-0.464873 
1 1 1 1 0 0 0 1 1 1 1 1 0 0 1 0 0 0 0 0 0 0 0 0 0 0 0 1:-1 2:0.243243 3:0.226891 4:-0.716814 5:-0.491411 6:-0.631473 7:-0.569454 8:-0.554559 
0 1 1 1 0.75235682501836543 1 1 1 1 1 1 1 0 0 0 0 1 0 0 0 0 0.021712676611951323 0.14472033562651662 0 0 0 0 2:0.716216 3:0.747899 4:-0.690265 5:0.100053 6:-0.131809 7:-0.0256748 8:0.0333832 
1 1 1 1 0 0 0 1 1 1 0 1 1 0 1 0 0 0 0 0 0 0 0 0 0 0 0 2:0.0945946 3:0.0588235 4:-0.769912 5:-0.584558 6:-0.66846 7:-0.605003 8:-0.685102 
0 1 1 1 0.38200646886253375 1 0.0026285610724084679 1 1 1 1 1 0 0 0 0.2949398389356192 1 0 0 0 0 0.03947079063643983 0.019291153327720394 0 0 0 0 1:1 2:0.581081 3:0.579832 4:-0.681416 5:0.198158 6:-0.190989 7:0.0533246 8:-0.165919 
1 1 1 1 0 0 0.20265921959851821 1 1 1 0.20340160367127882 1 0 0 1 0 0 0 0 0 0 0 0 0 0 0 0 2:0.202703 3:0.176471 4:-0.743363 5:-0.414202 6:-0.525891 7:-0.557604 8:-0.59442 
1 1 1 1 0 0 0 1 1 1 0.2699287859128835 1 0 0 1 0 0 0 0 0 0 0 0 0 0 0 0 1:-1 2:0.135135 3:0.159664 4:-0.787611 5:-0.533558 6:-0.650975 7:-0.577354 8:-0.624315 
1 1 1 1 0 0 0 1 1 1 0 1 0.70121976713113987 0 1 0 0 0 0 0 0 0 0 0 0 0 0 2:0.148649 3:0.12605 4:-0.769912 5:-0.551266 6:-0.664425 7:-0.57077 8:-0.61435 
1 1 1 1 0 0 0 1 1 1 0 1 0 0 1 0 0 0 0 0 0 0 0 0 0 0 0 1:-1 2:0.27027 3:0.294118 4:-0.707965 5:-0.474411 6:-0.61466 7:-0.464121 8:-0.504733 
0 1 1 1 0 1 0.77142110220653071 1 1 1 0.3055547981836903 1 0 0 0 0 1 0 0 0 0 0.27628623381677414 0 0 0 0 0 2:0.540541 3:0.495798 4:-0.60177 5:0.150345 6:-0.211836 7:0.0664911 8:-0.18585 
1 1 1 1 0 0 0 1 1 1 0 1 0 0 0 0 0.88078237777499879 0 0 0 0 0 0 0 0 0 0 2:0.445946 3:0.462185 4:-0.699115 5:-0.167345 6:-0.240753 7:-0.373272 8:-0.415047 
0 1 1 1 1 1 0 1 1 1 1 1 0 0 0 1 1 0 0 0 0 0 0 0 0 0.1899403087258987 0 2:0.608108 3:0.647059 4:-0.716814 5:0.0904905 6:-0.196369 7:-0.325872 8:-0.0164425 
1 1 1 1 0 0 0 1 1 1 1 1 1 1 1 0 1 0 0 1 0 0 0 0 0 0 0 1:-1 3:-0.0252101 4:-0.752212 5:-0.664247 6:-0.72495 7:-0.734036 8:-0.786746 
1 1 1 1 0 0 0 1 1 1 0 1 1 1 1 0 0.61804719495103877 0 0 0 0 0 0 0 0 0 0 1:1 2:0.202703 3:0.176471 4:-0.752212 5:-0.522224 6:-0.616005 7:-0.616853 8:-0.59442 
1 1 1 1 1 1 1 1 1 1 1 1 0 0 0 0 1 0 0 0 0 0 0 0 0 0 0 2:0.256757 3:0.294118 4:-0.716814 5:-0.228971 6:-0.475454 7:-0.396972 8:-0.295466 
-0 1 1 1 0 0 0 0 0 0 0 0 0 0 1 0 0 0 0 0 0 0 0 0 0 0 0 1:-1 2:-0.256757 3:-0.294118 4:-0.840708 5:-0.841686 6:-0.867518 7:-0.873601 8:-0.863478 
-0 0 0 0 0 0 0 0 0 0 0 0 1 1 1 0 0 0 0 0 0 0 0 0 0 0 0 1:1 2:-0.310811 3:-0.327731 4:-0.858407 5:-0.856207 6:-0.880968 7:-0.897301 8:-0.893373 
-0 0 0 1 0 0 0 0 0 0 0 0 1 0 1 0 0 0.11451581246655151 0 0 0 0 0 0 0 0 0 1:1 2:-0.243243 3:-0.243697 4:-0.849558 5:-0.795644 6:-0.873571 7:-0.897301 8:-0.773792 
-0 1 1 1 0 0 0 0 1 0 0 0 0 0 1 0 0 0 0 0 0 0 0 0 0 0 0 1:-1 2:-0.216216 3:-0.193277 4:-0.858407 5:-0.820436 6:-0.870881 7:-0.888084 8:-0.803687 
-0 0 0 1 0 0 0 0 0 0 0 0 0 0 1 0 0 0 0 0 0 0 0 0 0 0 0 1:1 2:-0.148649 3:-0.193277 4:-0.831858 5:-0.857624 6:-0.883658 7:-0.882818 8:-0.853513 
-0.92644911129646579 1 1 1 0 0 0 1 1 1 0 1 0 0 0 0 0 0 0 0 0 0 0 0 0 0 0 2:0.0405405 3:0.0756303 4:-0.787611 5:-0.675226 6:-0.762609 7:-0.711652 8:-0.704036 
-0 1 1 1 0 0 0 0 1 1 0 0 0 0 0 0 0 0 0 0 0 0 0 0 0 0 0 1:-1 2:-0.121622 3:-0.109244 4:-0.831858 5:-0.786789 6:-0.821789 7:-0.843318 8:-0.803687 
-0 1 1 1 0 0 0 0 1 1 0 0 0 0 0.40594163265741129 0 0 0 0 0 0 0 0 0 0 0 0 1:-1 2:-0.108108 3:-0.142857 4:-0.823009 5:-0.728706 6:-0.768662 7:-0.760369 8:-0.783757 
-1 1 1 1 0 1 0 1 1 1 0 1 0 0 0 0 0 0 0 0 0 0 0 0 0 0 0 2:0.162162 3:0.159664 4:-0.778761 5:-0.588454 6:-0.670477 7:-0.658986 8:-0.65421 
-0 1 1 1 0 0 0 0 1 1 0 1 0 0 0 0 0 0 0 0 0 0 0 0 0 0 0 1:-1 2:0.0135135 3:-0.0252101 4:-0.814159 5:-0.709934 6:-0.759247 7:-0.705069 8:-0.733931 
-0 1 1 1 0 0 0 0 1 1 0 0 0 0 0 0 0 0 0 0 0 0 0 0 0 0 0 1:-1 2:-0.0540541 3:-0.092437 4:-0.831858 5:-0.73331 6:-0.772024 7:-0.790652 8:-0.803687 
-1 1 1 1 0 0 0 1 1 1 0 1 0 0 0 0 0 0 0 0 0 0 0 0 0 0 0 1:-1 2:0.0675676 3:0.0588235 4:-0.769912 5:-0.631309 6:-0.731002 7:-0.651086 8:-0.674141 
-0 0 0 0 0 0 0 0 0 0 0 0 1 0 1 0 0 0 0 0 0 0 0 0 0 0 0 1:1 2:-0.22973 3:-0.294118 4:-0.831858 5:-0.837436 6:-0.860121 7:-0.880184 8:-0.853513 
-0 0 0 1 0 0 0 0 0 0 0 0 0 0 1 0 0 0 0 0 0 0 0 0 0 0 0 1:1 2:-0.162162 3:-0.193277 4:-0.849558 5:-0.821852 6:-0.862811 7:-0.849901 8:-0.833582 
-0 1 0 1 0 0 0 0 0 0 0 0 1 0 1 0 0 0 0 0 0 0 0 0 0 0 0 2:-0.324324 3:-0.310924 4:-0.840708 5:-0.865769 6:-0.887021 7:-0.906517 8:-0.879422 
-0 0 0 0 0 0 0 0 0 0 0 0 1 0 1 0 0 0 0 0 0 0 0 0 0 0 0 1:1 2:-0.256757 3:-0.310924 4:-0.831858 5:-0.851957 6:-0.885676 7:-0.853851 8:-0.867464 
-0 0 0 0 0 0 0 0 0 0 0 0 1 1 1 0 0 0 0 1 0 0 0 0 0 0 0 1:1 2:-0.486486 3:-0.512605 4:-0.884956 5:-0.932353 6:-0.947545 7:-0.947334 8:-0.947185 
-0 1 0 0 0 0 0 0 0 0 0 0 1 0.919672698522226 1 0 0 0 0 0 0 0 0 0 0 0 0 2:-0.378378 3:-0.411765 4:-0.858407 5:-0.890916 6:-0.910558 7:-0.910467 8:-0.907324 
-1 1 1 1 1 1 1 1 1 1 1 1 0 0 0 0 1 0 0 0 0 1 0 0 0 0.27683578406455023 0 2:0.22973 3:0.142857 4:-0.743363 5:-0.452453 6:-0.587088 7:-0.556287 8:-0.494768 
-0 0 0 0 0 0 0 0 0 0 0 0 1 0 1 0 0 0 0 0 0 0 0 0 0 0 0 1:1 2:-0.22973 3:-0.310924 4:-0.840708 5:-0.874978 6:-0.914593 7:-0.903884 8:-0.853513 
-0 0 0 1 0 0 0 0 0 0 0 0 1 0 1 0 0 0 0 0 0 0 0 0 0 0 0 1:1 2:-0.202703 3:-0.243697 4:-0.831858 5:-0.813352 6:-0.837256 7:-0.864384 8:-0.843548 
-0 1 1 1 0 0 0 0 0 0 0 0 0 0 1 0 0 0 0 0 0 0 0 0 0 0 0 1:-1 2:-0.297297 3:-0.344538 4:-0.840708 5:-0.873207 6:-0.899798 7:-0.892034 8:-0.883408 
-0 1 0 1 0 0 0 0 0 0 0 0 0 0 1 0 0 0 0 0 0 0 0 0 0 0 0 1:1 2:-0.108108 3:-0.176471 4:-0.787611 5:-0.771914 6:-0.831204 7:-0.816985 8:-0.783757 
-0 1 1 1 0 0 0 0 0 0 0 0 0 0 1 0 0 0 0 0 0 0 0 0 0 0 0 2:-0.148649 3:-0.210084 4:-0.778761 5:-0.785019 6:-0.838601 7:-0.785385 8:-0.823617 
-0 0 0 0.96891704537744072 0 0 0 0 0 0 0 0 1 0 1 0 0 0 0 0 0 0 0 0 0 0 0 1:1 2:-0.216216 3:-0.277311 4:-0.849558 5:-0.856207 6:-0.896436 7:-0.873601 8:-0.863478 
-0 0 0 0 0 0 0 0 0 0 0 0 1 1 1 0 0 0 0 1 0 0 0 0 0 0 0 1:1 2:-0.459459 3:-0.462185 4:-0.867257 5:-0.919603 6:-0.936113 7:-0.924951 8:-0.933234 
-0 0 0 0 0 0 0 0 0 0 0 0 1 1 1 0 0 0 0 0 0 0 0 0 0 0 0 1:1 2:-0.378378 3:-0.361345 4:-0.867257 5:-0.890916 6:-0.910558 7:-0.901251 8:-0.913303 
-0 0 0 0 0 0 0 0 0 0 0 0 1 0 1 0 0 0 0 0 0 0 0 0 0 0 0 1:1 2:-0.27027 3:-0.277311 4:-0.80531 5:-0.850186 6:-0.891056 7:-0.857801 8:-0.863478 
-0 0 0 0 0 0 0 0 0 0 0 0 1 1 1 0 0 0 0 0 0 0 0 0 0 0 0 1:1 2:-0.310811 3:-0.344538 4:-0.814159 5:-0.879936 6:-0.913248 7:-0.909151 8:-0.883408 
-0 0 0 1 0 0 0 0 0 0 0 0 1 0 1 0 0 0 0 0 0 0 0 0 0 0 0 1:1 2:-0.22973 3:-0.226891 4:-0.814159 5:-0.830352 6:-0.878278 7:-0.851218 8:-0.853513 
-0 1 1 1 0 0 0 0 0.1612352117061647 0 0 0 0 0 1 0 0 0 0 0 0 0 0 0 0 0 0 1:-1 2:-0.297297 3:-0.294118 4:-0.814159 5:-0.844165 6:-0.875588 7:-0.853851 8:-0.853513 
-0 0 0 1 0 0 0 0 0 0 0 0 1 0 1 0 0 0 0 0 0 0 0 0 0 0 0 1:1 2:-0.243243 3:-0.260504 4:-0.840708 5:-0.823623 6:-0.870881 7:-0.861751 8:-0.843548 
-0 0 0 0 0 0 0 0 0 0 0 0 1 1 1 0 0 0 0 0 0 0 0 0 0 0 0 1:1 2:-0.337838 3:-0.327731 4:-0.823009 5:-0.877103 6:-0.903161 7:-0.892034 8:-0.873443 
-0 1 1 1 0 0 0 0 1 1 0 1 0 0 0.64564466834121748 0 0 0 0 0 0 0 0 0 0 0 0 2:-0.027027 3:-0.092437 4:-0.80531 5:-0.694351 6:-0.761937 7:-0.741935 8:-0.694071 
-0 1 1 1 0 0 0 0 0 0 0 0 0 0 1 0 0 0 0 0 0 0 0 0 0 0 0 1:1 2:-0.0135135 3:-0.0252101 4:-0.787611 5:-0.742872 6:-0.778749 7:-0.782752 8:-0.783757 
-0 0 0 1 0 0 0 0 0 0 0 0 1 0 1 0 0 0 0 0 0 0 0 0 0 0 0 1:1 2:-0.22973 3:-0.260504 4:-0.831858 5:-0.847707 6:-0.888366 7:-0.886768 8:-0.823617 
-0 1 1 1 0 0 0 0 0 0 0 0 1 0 1 0 0 0 0 0 0 0 0 0 0 0 0 1:-1 2:-0.418919 3:-0.411765 4:-0.867257 5:-0.918895 6:-0.94351 7:-0.934167 8:-0.923269 
-0 1 0 0 0 0 0 0 0 0 0 0 1 1 1 0 0 0.022874704910833897 0.058217345376536139 1 0 0.3018643735581894 0 0.031345157072169533 0 0 0 1:-1 2:-0.648649 3:-0.663866 4:-0.920354 5:-0.971312 6:-0.97848 7:-0.986833 8:-0.972098 
-0 1 1 1 0 0 0 0 0 0 0 0 1 1 1 0 0 0 0 0 0 0 0 0 0 0 0 1:-1 2:-0.445946 3:-0.478992 4:-0.858407 5:-0.924562 6:-0.9462 7:-0.931534 8:-0.93423 
-0 1 1 1 0 0 0 0 0 0 0 0 1 0 1 0 0 0 0 0 0 0 0 0 0 0 0 1:-1 2:-0.337838 3:-0.378151 4:-0.849558 5:-0.880999 6:-0.913248 7:-0.877551 8:-0.905331 
-0 1 0 0.34446106742875338 0 0 0 0 0 0 0 0 1 1 1 0 0 0 0 1 0 0 0 0 0 0 0 1:-1 2:-0.567568 3:-0.613445 4:-0.902655 5:-0.964937 6:-0.977135 7:-0.973667 8:-0.964126 
-0 1 1 1 0 0 0 0 1 1 0 1 0 0 0 0 0 0 0 0 0 0 0 0 0 0 0 2:-0.0405405 3:-0.0420168 4:-0.787611 5:-0.724455 6:-0.792199 7:-0.751152 8:-0.72297 
-0 1 1 1 0 0 0 0 0 0 0 0 0 0 1 0 0 0 0 0 0 0 0 0 0 0 0 1:-1 2:-0.175676 3:-0.394958 4:-0.823009 5:-0.818665 6:-0.859449 7:-0.859118 8:-0.843548 
-0 1 1 1 0 0 0 0 0 0 0 0 1 0 1 0 0 0 0 0 0 0 0 0 0 0 0 1:-1 2:-0.324324 3:-0.378151 4:-0.849558 5:-0.878874 6:-0.894418 7:-0.901251 8:-0.903338 
-0 1 1 1 0 0 0 0 0 0 0 0 0 0 1 0 0 0 0 0 0 0 0 0 0 0 0 1:-1 2:-0.310811 3:-0.327731 4:-0.831858 5:-0.868603 6:-0.902488 7:-0.882818 8:-0.883408 
-0 1 1 1 0 0 0 0 0 0 0 0 1 0 1 0 0 0 0 0 0 0 0 0 0 0 0 1:-1 2:-0.364865 3:-0.428571 4:-0.858407 5:-0.906145 6:-0.928716 7:-0.938117 8:-0.903338 
-0 1 1 1 0 0 0 0 0 0 0 0 1 0 1 0 0 0 0 0 0 0 0 0 0 0 0 1:-1 2:-0.405405 3:-0.462185 4:-0.867257 5:-0.910041 6:-0.934095 7:-0.923634 8:-0.923269 
-0 0 0 1 0 0 0 0 0 0 0 0 1 0 1 0 0 0 0 0 0 0 0 0 0 0 0 1:1 2:-0.202703 3:-0.260504 4:-0.823009 5:-0.838852 6:-0.882313 7:-0.878868 8:-0.863478 
-0 1 1 1 0 0 0 0 1 1 0 1 0 0 1 0 0 0 0 0 0 0 0 0 0 0 0 2:-0.027027 3:-0.092437 4:-0.79646 5:-0.724101 6:-0.794217 7:-0.753785 8:-0.763827 
-0 0 0 0 0 0 0 0 0 0 0 0 1 1 1 0 0 0 0 0 0 0 0 0 0 0 0 1:1 2:-0.351351 3:-0.411765 4:-0.840708 5:-0.910395 6:-0.94351 7:-0.895984 8:-0.923269 
-0 0 0 0 0 0 0 0 0 0 0 0 1 1 1 0 0 0 0 1 0 0 0 0 0 0 0 1:1 2:-0.405405 3:-0.428571 4:-0.840708 5:-0.923145 6:-0.946873 7:-0.936801 8:-0.939213 
-0 0 0 0 0 0 0 0 0 0 0 0 1 1 1 0 0 0 0 0 0 0 0 0 0 0 0 1:1 2:-0.324324 3:-0.344538 4:-0.858407 5:-0.876749 6:-0.921318 7:-0.907834 8:-0.877429 
-0 0 0 0 0 0 0 0 0 0 0 0 1 1 1 0 0 0 0 1 0 0 0 0 0 0 0 1:1 2:-0.445946 3:-0.495798 4:-0.902655 5:-0.92102 6:-0.94082 7:-0.928901 8:-0.936223 
-0 0 0 0 0 0 0 0 0 0 0 0 1 1 1 0 0 0 0 1 0 0 0 0 0 0 0 1:1 2:-0.459459 3:-0.512605 4:-0.884956 5:-0.928103 6:-0.937458 7:-0.947334 8:-0.943199 
-0 0 0 1 0 0 0 0 0 0 0 0 1 0 1 0 0 0 0 0 0 0 0 0 0 0 0 1:1 2:-0.202703 3:-0.260504 4:-0.823009 5:-0.845582 6:-0.874916 7:-0.882818 8:-0.873443 
-0 1 1 1 0 0 0 0 1 1 0 0 0 0 0.85986617978395308 0 0 0 0 0 0 0 0 0 0 0 0 1:-1 2:-0.108108 3:-0.159664 4:-0.787611 5:-0.77581 6:-0.835239 7:-0.763002 8:-0.813652 
-0 0 0 0 0 0 0 0 0 0 0 0 1 1 1 0 0 0 0 0 0 0 0 0 0 0 0 1:1 2:-0.351351 3:-0.378151 4:-0.849558 5:-0.879936 6:-0.905851 7:-0.910467 8:-0.896363 
-0 0 0 0 0 0 0 0 0 0 0 0 1 1 1 0 0 0 0 0 0 0 0 0 0 0 0 1:1 2:-0.324324 3:-0.344538 4:-0.858407 5:-0.87852 6:-0.898453 7:-0.910467 8:-0.905331 
-0 0 0 1 0 0 0 0 0 0 0 0 0 0 1 0 0 0 0 0 0 0 0 0 0 0 0 1:1 2:-0.22973 3:-0.176471 4:-0.849558 5:-0.810165 6:-0.841964 7:-0.832785 8:-0.854509 
-0 0 0 1 0 0 0 0 0 0 0 0 1 0 1 0 0 0 0 0 0 0 0 0 0 0 0 1:1 2:-0.216216 3:-0.260504 4:-0.761062 5:-0.831415 6:-0.856086 7:-0.884134 8:-0.856502 
-0 0 0 1 0 0 0 0 0 0 0 0 1 0 1 0 0 0 0 0 0 0 0 0 0 0 0 1:1 2:-0.175676 3:-0.260504 4:-0.831858 5:-0.90402 6:-0.885676 7:-0.847268 8:-0.882412 
-0 0 0 1 0 0 0 0 0 0 0 0 0 0 1 0 0 0 0 0 0 0 0 0 0 0 0 1:1 2:-0.162162 3:-0.176471 4:-0.823009 5:-0.796352 6:-0.837929 7:-0.835418 8:-0.823617 
-0 0 0 1 0 0 0 0 0 0 0 0 0 0 1 0 0 0 0 0 0 0 0 0 0 0 0 1:1 2:-0.135135 3:-0.210084 4:-0.831858 5:-0.775456 6:-0.815736 7:-0.790652 8:-0.839562 
-0 1 0 1 0 0 0 0 0 0 0 0 0 0 1 0 0 0 0 0 0 0 0 0 0 0 0 1:1 2:-0.0810811 3:-0.109244 4:-0.80531 5:-0.736851 6:-0.765972 7:-0.802502 8:-0.78575 
-0 1 1 1 0 0 0 0 0 0 0 0 0 0 1 0 0 0 0 0 0 0 0 0 0 0 0 1:1 3:-0.0588235 4:-0.823009 5:-0.654684 6:-0.632145 7:-0.774852 8:-0.78276 
-0 1 0 1 0 0 0 0 0 0 0 0 0 0 1 0 0 0 0 0 0 0 0 0 0 0 0 1:1 3:-0.092437 4:-0.823009 5:-0.733664 6:-0.759919 7:-0.737986 8:-0.82561 
-0 0 0 0 0 0 0 0 0 0 0 0 1 1 1 0 0 0 0 0 0 0 0 0 0 0 0 1:1 2:-0.297297 3:-0.344538 4:-0.867257 5:-0.872145 6:-0.906523 7:-0.885451 8:-0.893373 
-0 0 0 0 0 0 0 0 0 0 0 0 1 1 1 0 0 0 0 0 0 0 0 0 0 0 0 1:1 2:-0.297297 3:-0.344538 4:-0.867257 5:-0.869665 6:-0.874243 7:-0.901251 8:-0.9143 
-0 0 0 0 0 0 0 0 0 0 0 0 1 1 1 0 0 0 0 0 0 0 0 0 0 0 0 1:1 2:-0.283784 3:-0.344538 4:-0.876106 5:-0.843811 6:-0.861466 7:-0.889401 8:-0.893373 
-0 0 0 0 0 0 0 0 0 0 0 0 1 0 1 0 0 0 0 0 0 0 0 0 0 0 0 1:1 2:-0.27027 3:-0.294118 4:-0.823009 5:-0.827519 6:-0.852051 7:-0.860434 8:-0.873443 
-0 0 0 1 0 0 0 0 0 0 0 0 0 0 1 0 0 0 0 0 0 0 0 0 0 0 0 1:1 2:-0.202703 3:-0.243697 4:-0.831858 5:-0.798477 6:-0.798924 7:-0.819618 8:-0.844544 
-0 0 0 1 0 0 0 0 0 0 0 0 0 0 1 0 0 0 0 0 0 0 0 0 0 0 0 1:1 2:-0.0945946 3:-0.142857 4:-0.840708 5:-0.761289 6:-0.792872 7:-0.818302 8:-0.823617 
-0 1 0 1 0 0 0 0 0 0 0 0 0 0 1 0 0 0 0 0 0 0 0 0 0 0 0 1:1 2:-0.0945946 3:-0.159664 4:-0.840708 5:-0.751018 6:-0.790182 7:-0.805135 8:-0.803687 
-0 1 0 1 0 0 0 0 0 0 0 0 0 0 1 0 0 0 0 0 0 0 0 0 0 0 0 1:1 2:-0.0405405 3:-0.092437 4:-0.823009 5:-0.743226 6:-0.789509 7:-0.784068 8:-0.793722 
-0 1 0 1 0 0 0 0 0 0 0 0 0 0 1 0 0 0 0 0 0 0 0 0 0 0 0 1:1 2:-0.0405405 3:-0.092437 4:-0.840708 5:-0.700372 6:-0.709482 7:-0.772219 8:-0.813652 
-0 1 0 1 0 0 0 0 0 0 0 0 0 0 1 0 0 0 0 0 0 0 0 0 0 0 0 1:1 2:-0.0135135 3:-0.092437 4:-0.840708 5:-0.753497 6:-0.802286 7:-0.824885 8:-0.793722 
-0 1 1 1 0 0 0 0 0 0 0 0 0 0 1 0 0 0 0 0 0 0 0 0 0 0 0 1:1 3:-0.00840336 4:-0.769912 5:-0.704268 6:-0.773369 7:-0.752469 8:-0.764823 
-0 1 1 1 0 0 0 0 1 0 0 1 0 0 0 0 0 0 0 0 0 0 0 0 0 0 0 1:1 2:0.0135135 3:0.0252101 4:-0.769912 5:-0.66283 6:-0.744452 7:-0.666886 8:-0.729945 
-0 1 1 1 0 0 0 0 0 0 0 0 0 0 1 0 0 0 0 0 0 0 0 0 0 0 0 1:1 2:0.0135135 3:-0.0252101 4:-0.80531 5:-0.668497 6:-0.6846 7:-0.776169 8:-0.776781 
-0 1 1 1 0 0 0 0 0 0 0 0 0 0 1 0 0 0 0 0 0 0 0 0 0 0 0 1:1 2:0.0135135 3:-0.0588235 4:-0.814159 5:-0.684788 6:-0.68729 7:-0.59842 8:-0.76582 
-0 1 1 1 0 0 0 0 1 0 0 1 0 0 0 0 0 0 0 0 0 0 0 0 0 0 0 1:1 2:0.027027 3:0.00840336 4:-0.778761 5:-0.624225 6:-0.698722 7:-0.669519 8:-0.711011 
-0 1 1 1 0 0 0 0 1 0 0 0 0 0 0 0 0 0 0 0 0 0 0 0 0 0 0 1:1 2:0.0405405 3:0.0252101 4:-0.823009 5:-0.673101 6:-0.688635 7:-0.756419 8:-0.773792 
-0 1 1 1 0 0 0 0 0.38408032408615395 0 0 0 0 0 0.2710766399910991 0 0 0 0 0 0 0 0 0 0 0 0 1:1 2:0.0405405 3:-0.0252101 4:-0.814159 5:-0.683372 6:-0.737727 7:-0.752469 8:-0.750872 
-0 1 1 1 0 0 0 0 1 0 0 0 0 0 0 0 0 0 0 0 0 0 0 0 0 0 0 1:1 2:0.0540541 3:0.0420168 4:-0.79646 5:-0.670622 6:-0.68998 7:-0.757735 8:-0.777778 
-0 1 1 1 0 0 0 0 1 0 0 0 0 0 0 0 0 0 0 0 0 0 0 0 0 0 0 1:1 2:0.0540541 3:0.0588235 4:-0.79646 5:-0.623163 6:-0.650303 7:-0.743252 8:-0.717987 
-0 1 1 1 0 0 0 0 0 0 0 0 0 0 0 0 0 0 0 0 0 0 0 0 0 0 0 1:1 2:0.0540541 3:-0.0252101 4:-0.80531 5:-0.688684 6:-0.765299 7:-0.763002 8:-0.763827 
-0.41713951621028744 1 1 1 0 0 0 1 1 1 0 1 0 0 0 0 0 0 0 0 0 0 0 0 0 0 0 1:-1 2:0.0945946 3:0.0420168 4:-0.787611 5:-0.57535 6:-0.581708 7:-0.693219 8:-0.723966 
-0 1 1 1 0 0 0 0 1 1 0 1 0 0 0 0 0 0 0 0 0 0 0 0 0 0 0 2:0.108108 3:0.0588235 4:-0.79646 5:-0.662476 6:-0.73302 7:-0.749835 8:-0.745889 
-1 1 1 1 0 0 0 1 1 1 0 1 0 0 0 0 0 0 0 0 0 0 0 0 0 0 0 1:-1 2:0.135135 3:0.159664 4:-0.761062 5:-0.569329 6:-0.635508 7:-0.623436 8:-0.715994 
-1 1 1 1 0 0 0 1 1 1 0 1 0 0 0 0 0 0 0 0 0 0 0 0 0 0 0 1:-1 2:0.148649 3:0.109244 4:-0.761062 5:-0.546308 6:-0.571621 7:-0.661619 8:-0.69706 
-1 1 1 1 0 0.67581693303343793 0 1 1 1 0 1 0 0 0 0 0 0 0 0 0 0 0 0 0 0 0 1:-1 2:0.148649 3:0.159664 4:-0.778761 5:-0.525058 6:-0.549428 7:-0.685319 8:-0.639263 
-0 1 1 1 0 0 0 1 1 1 0 1 0 0 0 0 0 0 0 0 0 0 0 0 0 0 0 1:1 2:0.175676 3:0.0756303 4:-0.823009 5:-0.591642 6:-0.681237 7:-0.678736 8:-0.65421 
-1 1 1 1 1 1 1 1 1 1 1 1 0 0 0 0 1 0 0 0 0 0 0 0 0 0 0 1:1 2:0.175676 3:0.176471 4:-0.761062 5:-0.456703 6:-0.509751 7:-0.583937 8:-0.644245 
-1 1 1 1 0 0 0 1 1 1 0 1 0 0 0 0 0 0 0 0 0 0 0 0 0 0 0 1:-1 2:0.189189 3:0.12605 4:-0.725664 5:-0.496724 6:-0.504371 7:-0.640553 8:-0.694071 
-1 1 1 1 0 1 0 1 1 1 0 1 0 0 0 0 0.53652420689328784 0 0 0 0 0 0 0 0 0 0 1:-1 2:0.22973 3:0.176471 4:-0.778761 5:-0.539933 6:-0.63618 7:-0.57867 8:-0.632287 
-1 1 1 1 1 1 1 1 1 1 1 1 0 0 0 0 1 0 0 0 0 0 0 0 0 0 0 1:-1 2:0.337838 3:0.361345 4:-0.699115 5:-0.361431 6:-0.453262 7:-0.491771 8:-0.576482 
-1 1 1 1 1 1 1 1 1 1 1 1 0 0 0 1 1 0 0 0 0 0.3345545417511166 0 0 0 0 0 2:0.364865 3:0.361345 4:-0.734513 5:-0.211263 6:-0.251513 7:-0.407505 8:-0.425012 
-0 0 0 0 0 0 0 0 0 0 0 0 1 1 1 0 0 0 0.94178265462346389 1 0 0 0 0.96865484292783055 0.13952779403564652 0 0 1:1 2:-0.486486 3:-0.529412 4:-0.902655 5:-0.941916 6:-0.952253 7:-0.955234 8:-0.953164 
-0 0 0 1 0 0 0 0 0 0 0 0 0 0 1 0 0 0 0 0 0 0 0 0 0 0 0 1:1 2:-0.162162 3:-0.210084 4:-0.858407 5:-0.825394 6:-0.837256 7:-0.870968 8:-0.873443 
-0 0 0 1 0 0 0 0 0 0 0 0 0 0 1 0 0 0 0 0 0 0 0 0 0 0 0 1:1 2:-0.108108 3:-0.176471 4:-0.80531 5:-0.774748 6:-0.770007 7:-0.885451 8:-0.817638 
-0 0 0 1 0 0 0 0 0 0 0 0 0 0 1 0 0 0 0 0 0 0 0 0 0 0 0 1:1 2:-0.0945946 3:-0.176471 4:-0.823009 5:-0.801665 6:-0.832549 7:-0.851218 8:-0.8286 
-0 1 0 1 0 0 0 0 0 0 0 0 0 0 1 0 0 0 0 0 0 0 0 0 0 0 0 1:1 2:-0.0675676 3:-0.176471 4:-0.814159 5:-0.777581 6:-0.832549 7:-0.816985 8:-0.796712 
-0 1 0 1 0 0 0 0 0 0 0 0 0 0 1 0 0 0 0 0 0 0 0 0 0 0 0 1:1 2:-0.0675676 3:-0.109244 4:-0.80531 5:-0.744643 6:-0.767317 7:-0.834101 8:-0.793722 
-0 1 0 1 0 0 0 0 0 0 0 0 0 0 1 0 0 0 0 0 0 0 0 0 0 0 0 1:1 2:-0.0540541 3:-0.092437 4:-0.79646 5:-0.740393 6:-0.783457 7:-0.773535 8:-0.794718 
-0 1 1 1 0 0 0 0 1 1 0 0 0 0 0 0 0 0 0 0 0 0 0 0 0 0 0 1:-1 2:-0.0405405 3:-0.0588235 4:-0.787611 5:-0.720205 6:-0.734364 7:-0.773535 8:-0.796712 
-0 1 1 1 0 0 0 0 0 0 0 0 0 0 1 0 0 0 0 0 0 0 0 0 0 0 0 1:1 2:-0.027027 3:-0.0252101 4:-0.79646 5:-0.70533 6:-0.702757 7:-0.807768 8:-0.791729 
-0 1 0.4436581840314644 1 0 0 0 0 0 0 0 0 0 0 1 0 0 0 0 0 0 0 0 0 0 0 0 1:1 2:-0.0135135 3:-0.0756303 4:-0.80531 5:-0.738976 6:-0.793544 7:-0.780118 8:-0.763827 
-0 1 1 1 0 0 0 0 0 0 0 0 0 0 1 0 0 0 0 0 0 0 0 0 0 0 0 1:1 3:-0.0252101 4:-0.814159 5:-0.711705 6:-0.776059 7:-0.734036 8:-0.769806 
-0 1 1 1 0 0 0 0 0 0 0 0 0 0 1 0 0 0 0 0 0 0 0 0 0 0 0 1:1 3:-0.0420168 4:-0.743363 5:-0.693997 6:-0.739744 7:-0.763002 8:-0.743896 
-0 1 0 1 0 0 0 0 0 0 0 0 0 0 1 0 0 0 0 0 0 0 0 0 0 0 0 1:1 2:0.0135135 3:-0.0756303 4:-0.814159 5:-0.738268 6:-0.750504 7:-0.794602 8:-0.80867 
-0 1 1 1 0 0 0 0 0 0 0 0 0 0 0 0 0 0 0 0 0 0 0 0 0 0 0 1:1 2:0.0405405 3:-0.00840336 4:-0.79646 5:-0.707101 6:-0.759247 7:-0.743252 8:-0.768809 
-0 1 1 1 0 0 0 1 1 1 0 1 0 0 0 0 0 0 0 0 0 0 0 0 0 0 0 1:-1 2:0.0675676 3:0.0252101 4:-0.814159 5:-0.616079 6:-0.638198 7:-0.63397 8:-0.745889 
-0 1 1 1 0 0 0 0 1 0 0 0 0 0 0 0 0 0 0 0 0 0 0 0 0 0 0 1:1 2:0.0810811 3:-0.00840336 4:-0.823009 5:-0.679476 6:-0.710155 7:-0.709019 8:-0.773792 
-1 1 1 1 0 0.077428791891101453 0 1 1 1 0 1 0 0 0 0 0 0 0 0 0 0 0 0 0 0 0 1:-1 2:0.121622 3:0.378151 4:-0.778761 5:-0.631309 6:-0.685272 7:-0.658986 8:-0.721973 
-0 1 1 1 0 0 0 0 1 1 0 1 0 0 0 0 0 0 0 0 0 0 0 0 0 0 0 1:1 2:0.148649 3:0.0756303 4:-0.752212 5:-0.612183 6:-0.667787 7:-0.706386 8:-0.687095 
-1 1 1 1 0 0 0 1 1 1 0 1 0 0 0 0 0 0 0 0 0 0 0 0 0 0 0 2:0.162162 3:0.12605 4:-0.778761 5:-0.615725 6:-0.670477 7:-0.60632 8:-0.72297 
-1 1 1 1 1 1 1 1 1 1 1 1 0 0 0 1 1 0 0 0 0 0 0 0 0 0 0 2:0.202703 3:0.361345 4:-0.734513 5:-0.279617 6:-0.297915 7:-0.478604 8:-0.496761 
-1 1 1 1 0 0.074903508219919646 0 1 1 1 0 1 0 0 0 0 0 0 0 0 0 0 0 0 0 0 0 1:-1 2:0.27027 3:0.12605 4:-0.761062 5:-0.446432 6:-0.433087 7:-0.523371 8:-0.692078 
-1 1 1 1 1 1 1 1 1 1 1 1 0 0 0 1 1 0 0 0 0 1 0 0 0 0 0 2:0.351351 3:0.361345 4:-0.743363 5:-0.296972 6:-0.37458 7:-0.398288 8:-0.474838 
-1 1 1 1 1 1 1 1 1 1 1 1 0 0 0.54001639686767866 1 1 0 0 0 0 0 0 0 0 0 0 1:-1 2:0.378378 3:0.378151 4:-0.716814 5:-0.324597 6:-0.383322 7:-0.379855 8:-0.474838 
-0 0 0 0 0 0 0 0 0 0 0 0 1 1 1 0 0 0 0 0 0 0 0 0 0 0 0 1:1 2:-0.310811 3:-0.344538 4:-0.831858 5:-0.853728 6:-0.864156 7:-0.897301 8:-0.899352 
-0 0 0 0 0 0 0 0 0 0 0 0 1 1 1 0 0 0 0 0 0 0 0 0 0 0 0 1:1 2:-0.297297 3:-0.361345 4:-0.840708 5:-0.858686 6:-0.872226 7:-0.894668 8:-0.907324 
-0 0 0 0 0 0 0 0 0 0 0 0 1 0 1 0 0 0 0 0 0 0 0 0 0 0 0 1:1 2:-0.216216 3:-0.277311 4:-0.849558 5:-0.862582 6:-0.890383 7:-0.902567 8:-0.883408 
-0 0 0 0 0 0 0 0 0 0 0 0 1 0 1 0 0 0 0 0 0 0 0 0 0 0 0 1:1 2:-0.216216 3:-0.294118 4:-0.849558 5:-0.85054 6:-0.874243 7:-0.872284 8:-0.883408 
-0 0 0 1 0 0 0 0 0 0 0 0 0 0 1 0 0 0 0 0 0 0 0 0 0 0 0 1:1 2:-0.202703 3:-0.210084 4:-0.840708 5:-0.828227 6:-0.881641 7:-0.828835 8:-0.853513 
-0 0 0 1 0 0 0 0 0 0 0 0 0 0 1 0 0 0 0 0 0 0 0 0 0 0 0 1:1 2:-0.189189 3:-0.210084 4:-0.849558 5:-0.832477 6:-0.842636 7:-0.882818 8:-0.864474 
-0 0 0 1 0 0 0 0 0 0 0 0 1 0 1 0 0 0 0 0 0 0 0 0 0 0 0 1:1 2:-0.189189 3:-0.277311 4:-0.849558 5:-0.846998 6:-0.874243 7:-0.898618 8:-0.863478 
-0 0 0 1 0 0 0 0 0 0 0 0 0 0 1 0 0 0 0 0 0 0 0 0 0 0 0 1:1 2:-0.162162 3:-0.176471 4:-0.831858 5:-0.787498 6:-0.796907 7:-0.839368 8:-0.856502 
-0 0 0 1 0 0 0 0 0 0 0 0 0 0 1 0 0 0 0 0 0 0 0 0 0 0 0 1:1 2:-0.148649 3:-0.176471 4:-0.831858 5:-0.770143 6:-0.777404 7:-0.849901 8:-0.82561 
-0 1 1 1 0 0 0 0 0 0 0 0 0 0 1 0 0 0 0 0 0 0 0 0 0 0 0 1:1 2:-0.0945946 3:-0.0588235 4:-0.80531 5:-0.767664 6:-0.790182 7:-0.815668 8:-0.664175 
-0 1 0 1 0 0 0 0 0 0 0 0 0 0 1 0 0 0 0 0 0 0 0 0 0 0 0 1:1 2:-0.0540541 3:-0.092437 4:-0.80531 5:-0.765185 6:-0.768662 7:-0.882818 8:-0.803687 
-0 1 0 1 0 0 0 0 0 0 0 0 0 0 1 0 0 0 0 0 0 0 0 0 0 0 0 1:1 2:-0.0540541 3:-0.109244 4:-0.823009 5:-0.785019 6:-0.831876 7:-0.843318 8:-0.791729 
-0 0.23254021394275429 0 1 0 0 0 0 0 0 0 0 0 0 1 0 0 0 0 0 0 0 0 0 0 0 0 1:1 2:-0.0540541 3:-0.142857 4:-0.840708 5:-0.788206 6:-0.815064 7:-0.830151 8:-0.843548 
-0 1 0 1 0 0 0 0 0 0 0 0 0 0 1 0 0 0 0 0 0 0 0 0 0 0 0 1:1 2:-0.027027 3:-0.12605 4:-0.80531 5:-0.740393 6:-0.784129 7:-0.813035 8:-0.763827 
-0 1 1 1 0 0 0 0 1 0 0 0 0 0 0 0 0 0 0 0 0 0 0 0 0 0 0 1:1 2:0.0405405 3:0.0252101 4:-0.814159 5:-0.67133 6:-0.702085 7:-0.740619 8:-0.783757 
-0 1 1 1 0 0 0 0.48233848350003145 1 1 0 1 0 0 0 0 0 0 0 0 0 0 0 0 0 0 0 1:1 2:0.135135 3:0.092437 4:-0.769912 5:-0.638392 6:-0.707465 7:-0.695853 8:-0.684106 
-0 1 1 1 0 0 0 0 1 1 0 1 0 0 0 0 0 0 0 0 0 0 0 0 0 0 0 1:1 2:0.148649 3:0.0756303 4:-0.778761 5:-0.598017 6:-0.652993 7:-0.674786 8:-0.690085 
-1 1 1 1 0 1 0 1 1 1 0 1 0 0 0 0 0.6135839774789611 0 0 0 0 0 0 0 0 0 0 1:1 2:0.162162 3:0.092437 4:-0.787611 5:-0.580662 6:-0.65232 7:-0.623436 8:-0.644245 
-0 1 1 1 0 0 0 1 1 1 0 1 0 0 0 0 0 0 0 0 0 0 0 0 0 0 0 1:1 2:0.189189 3:0.092437 4:-0.787611 5:-0.558704 6:-0.562206 7:-0.660303 8:-0.684106 
-0 0 0 1 0 0 0 0 0 0 0 0 1 0 1 0 0 0 0 0 0 0 0 0 0 0 0 1:1 2:-0.216216 3:-0.294118 4:-0.761062 5:-0.844519 6:-0.860121 7:-0.877551 8:-0.882412 
-0 0 0 1 0 0 0 0 0 0 0 0 0 0 1 0 0 0 0 0 0 0 0 0 0 0 0 1:1 2:-0.189189 3:-0.243697 4:-0.849558 5:-0.777935 6:-0.749832 7:-0.880184 8:-0.869457 
-0 0 0 1 0 0 0 0 0 0 0 0 0 0 1 0 0 0 0 0 0 0 0 0 0 0 0 1:1 2:-0.121622 3:-0.176471 4:-0.840708 5:-0.802019 6:-0.841964 7:-0.840685 8:-0.843548 
-0 0 0 1 0 0 0 0 0 0 0 0 0 0 1 0 0 0 0 0 0 0 0 0 0 0 0 1:1 2:-0.108108 3:-0.210084 4:-0.840708 5:-0.80131 6:-0.850706 7:-0.803818 8:-0.840558 
-0 1 1 1 0 0 0 0 0 0 0 0 0 0 1 0 0 0 0 0 0 0 0 0 0 0 0 1:1 2:0.027027 3:-0.0588235 4:-0.761062 5:-0.646538 6:-0.632818 7:-0.739302 8:-0.790732 
-0 1 1 1 0 0 0 0 1 0 0 0 0 0 0 0 0 0 0 0 0 0 0 0 0 0 0 1:1 2:0.0810811 3:0.0420168 4:-0.79646 5:-0.676288 6:-0.70881 7:-0.756419 8:-0.770802 
-0 1 1 1 0 0 0 0 1 1 0 1 0 0 0 0 0 0 0 0 0 0 0 0 0 0 0 2:0.0810811 3:0.0420168 4:-0.79646 5:-0.600496 6:-0.623403 7:-0.693219 8:-0.736921 
-0 1 1 1 0 0 0 0 1 0.72027077485380797 0 0 0 0 0 0 0 0 0 0 0 0 0 0 0 0 0 1:1 2:0.0945946 3:0.0252101 4:-0.778761 5:-0.617496 6:-0.62542 7:-0.731402 8:-0.710015 
-1 1 1 1 0 0 0 1 1 1 0 1 0 0 0 0 0 0 0 0 0 0 0 0 0 0 0 2:0.135135 3:0.092437 4:-0.787611 5:-0.595537 6:-0.64425 7:-0.662936 8:-0.715994 
-1 1 1 1 0 0.1718507668555411 0 1 1 1 0 1 0 0 0 0 0 0 0 0 0 0 0 0 0 0 0 1:1 2:0.189189 3:0.159664 4:-0.778761 5:-0.602975 6:-0.665098 7:-0.673469 8:-0.664175 
-0 0 0 0 0 0 0 0 0 0 0 0 1 0 1 0 0 0 0 0 0 0 0 0 0 0 0 1:1 2:-0.243243 3:-0.310924 4:-0.840708 5:-0.860811 6:-0.905178 7:-0.870968 8:-0.887394 
-0 0 0 0 0 0 0 0 0 0 0 0 1 0 1 0 0 0 0 0 0 0 0 0 0 0 0 1:1 2:-0.22973 3:-0.260504 4:-0.867257 5:-0.845228 6:-0.868863 7:-0.885451 8:-0.87145 
-0 0 0 0 0 0 0 0 0 0 0 0 1 0 1 0 0 0 0 0 0 0 0 0 0 0 0 1:1 2:-0.22973 3:-0.294118 4:-0.867257 5:-0.870728 6:-0.889711 7:-0.905201 8:-0.893373 
-0 0 0 1 0 0 0 0 0 0 0 0 1 0 1 0 0 0 0 0 0 0 0 0 0 0 0 1:1 2:-0.216216 3:-0.277311 4:-0.849558 5:-0.843811 6:-0.875588 7:-0.863068 8:-0.87145 
-0 0 0 1 0 0 0 0 0 0 0 0 0 0 1 0 0 0 0 0 0 0 0 0 0 0 0 1:1 2:-0.189189 3:-0.243697 4:-0.858407 5:-0.848061 6:-0.875588 7:-0.757735 8:-0.863478 
-0 0 0 1 0 0 0 0 0 0 0 0 0 0 1 0 0 0 0 0 0 0 0 0 0 0 0 1:1 2:-0.175676 3:-0.226891 4:-0.831858 5:-0.82929 6:-0.880968 7:-0.826201 8:-0.853513 
-0 0 0 1 0 0 0 0 0 0 0 0 0 0 1 0 0 0 0 0 0 0 0 0 0 0 0 1:1 2:-0.162162 3:-0.243697 4:-0.831858 5:-0.819373 6:-0.841291 7:-0.845951 8:-0.863478 
-0 0 0 1 0 0 0 0 0 0 0 0 0 0 1 0 0 0 0 0 0 0 0 0 0 0 0 1:1 2:-0.148649 3:-0.176471 4:-0.840708 5:-0.822915 6:-0.858104 7:-0.861751 8:-0.843548 
-0 0 0 1 0 0 0 0 0 0 0 0 0 0 1 0 0 0 0 0 0 0 0 0 0 0 0 1:1 2:-0.148649 3:-0.226891 4:-0.823009 5:-0.802373 6:-0.829859 7:-0.838051 8:-0.849527 
-0 0 0 1 0 0 0 0 0 0 0 0 0 0 1 0 0 0 0 0 0 0 0 0 0 0 0 1:1 2:-0.148649 3:-0.210084 4:-0.823009 5:-0.843811 6:-0.873571 7:-0.878868 8:-0.857499 
-0 1 0 1 0 0 0 0 0 0 0 0 0 0 1 0 0 0 0 0 0 0 0 0 0 0 0 1:1 2:-0.0810811 3:-0.092437 4:-0.823009 5:-0.779706 6:-0.814391 7:-0.836735 8:-0.810663 
-0 1 0 1 0 0 0 0 0 0 0 0 0 0 1 0 0 0 0 0 0 0 0 0 0 0 0 1:1 2:-0.0540541 3:-0.12605 4:-0.858407 5:-0.786789 6:-0.825151 7:-0.847268 8:-0.813652 
-0 1 0 1 0 0 0 0 0 0 0 0 0 0 1 0 0 0 0 0 0 0 0 0 0 0 0 1:1 2:-0.027027 3:-0.0588235 4:-0.823009 5:-0.768018 6:-0.827841 7:-0.816985 8:-0.783757 
-0 1 1 1 0 0 0 0 0 0 0 0 0 0 1 0 0 0 0 0 0 0 0 0 0 0 0 1:1 2:0.0135135 3:-0.0588235 4:-0.80531 5:-0.704268 6:-0.757902 7:-0.777485 8:-0.734928 
-0 1 1 1 0 0 0 0 0 0 0 0 0 0 0 0 0 0 0 0 0 0 0 0 0 0 0 1:1 2:0.0405405 3:-0.00840336 4:-0.80531 5:-0.71808 6:-0.764627 7:-0.782752 8:-0.76283 
-0 1 1 1 0 0 0 0 1 0 0 0 0 0 0 0 0 0 0 0 0 0 0 0 0 0 0 1:1 2:0.0405405 3:0.00840336 4:-0.80531 5:-0.700018 6:-0.73033 7:-0.788018 8:-0.743896 
-0 1 1 1 0 0 0 0 1 1 0 1 0 0 0 0 0 0 0 0 0 0 0 0 0 0 0 1:-1 2:0.0810811 3:0.0252101 4:-0.823009 5:-0.697893 6:-0.737054 7:-0.740619 8:-0.779771 
-0 1 1 1 0 0 0 0.16438656572888288 1 1 0 1 0 0 0 0 0 0 0 0 0 0 0 0 0 0 0 1:1 2:0.108108 3:0.0756303 4:-0.769912 5:-0.574641 6:-0.60659 7:-0.662936 8:-0.684106 
-1 1 1 1 0 0 0 1 1 1 0 1 0 0 0 0 0 0 0 0 0 0 0 0 0 0 0 1:1 2:0.175676 3:0.142857 4:-0.769912 5:-0.574641 6:-0.623403 7:-0.624753 8:-0.68012 
-1 1 1 1 0 1 0 1 1 1 0 1 0 0 0 1 1 0 0 0 0 0 0 0 0 0 0 1:1 2:0.202703 3:0.12605 4:-0.769912 5:-0.608642 6:-0.6846 7:-0.712969 8:-0.625311 
-1 1 1 1 0 1 0 1 1 1 1 1 0 0 0 0 1 0 0 0 0 0 0 0 0 0 0 1:1 2:0.216216 3:0.159664 4:-0.752212 5:-0.538162 6:-0.591123 7:-0.579987 8:-0.666168 
-1 1 1 1 0.22759160476973697 1 0.77914530327477016 1 1 1 1 1 0 0 0 0.19980682829351076 1 0 0 0 0 0 0 0 0 0 0 1:1 2:0.22973 3:0.226891 4:-0.787611 5:-0.578891 6:-0.6577 7:-0.63002 8:-0.650224 
-1 1 1 1 0 1 1 1 1 1 1 1 0 0 0 0 1 0 0 0 0 0 0 0 0 0 0 1:1 2:0.243243 3:0.159664 4:-0.769912 5:-0.536037 6:-0.62004 7:-0.57472 8:-0.65421 
-1 1 1 1 1 1 1 1 1 1 1 1 0 0 0 1 1 1 0 0 0 1 0 0 0 0 0.017815252522760356 2:0.445946 3:0.445378 4:-0.681416 5:-0.0950947 6:-0.229993 7:-0.249506 8:-0.295466 
-1 1 1 1 1 1 1 1 1 1 1 1 0 0 0 1 1 1 0 0 0.005818399147661751 1 1 0 1 0.72316421593544977 1 2:0.743243 3:0.579832 4:-0.681416 5:0.0221356 6:-0.152656 7:-0.154707 8:-0.136024 
-0 1 1 1 0 0 0 0 1 1 0 1 0 0 1 0 0 0 0 0 0 0 0 0 0 0 0 2:-0.189189 3:-0.277311 4:-0.761062 5:-0.578537 6:-0.635508 7:-0.656353 8:-0.669158 
-0 1 1 1 0 0 0 0 1 1 0 0 0 0 1 0 0 0 0 0 0 0 0 0 0 0 0 1:-1 2:-0.148649 3:-0.243697 4:-0.778761 5:-0.601913 6:-0.593141 7:-0.749835 8:-0.717987 
-0 1 1 1 0 0 0 0 1 1 0 0 0 0 0 0 0 0 0 0 0 0 0 0 0 0 0 1:-1 3:-0.109244 4:-0.787611 5:-0.708164 6:-0.733692 7:-0.764319 8:-0.769806 
-0 1 1 1 0 0 0 0 1 1 0 1 0 0 0 0 0 0 0 0 0 0 0 0 0 0 0 1:-1 2:0.0540541 3:0.0252101 4:-0.79646 5:-0.590933 6:-0.604573 7:-0.63397 8:-0.763827 
-1 1 1 1 0 0 0 1 1 1 0 1 0 0 0 0 0 0 0 0 0 0 0 0 0 0 0 1:-1 2:0.216216 3:0.092437 4:-0.778761 5:-0.540995 6:-0.593813 7:-0.593153 8:-0.686099 
-0 0 0 0 0 0 0 0 0 0 0 0 1 1 1 0 0 0 0 1 0 0 0 0 0 0 0 1:1 2:-0.364865 3:-0.462185 4:-0.867257 5:-0.911103 6:-0.925353 7:-0.928901 8:-0.931241 
-0 0 0 0 0 0 0 0 0 0 0 0 1 0 1 0 0 0 0 0 0 0 0 0 0 0 0 1:1 2:-0.256757 3:-0.294118 4:-0.858407 5:-0.859749 6:-0.880296 7:-0.890718 8:-0.883408 
-0 0 0 1 0 0 0 0 0 0 0 0 1 0 1 0 0 0 0 0 0 0 0 0 0 0 0 1:1 2:-0.216216 3:-0.260504 4:-0.849558 5:-0.843457 6:-0.869536 7:-0.902567 8:-0.853513 
-0 1 0 1 0 0 0 0 0 0 0 0 0 0 1 0 0 0 0 0 0 0 0 0 0 0 0 1:1 2:-0.0945946 3:-0.12605 4:-0.831858 5:-0.802727 6:-0.848016 7:-0.910467 8:-0.783757 
-0 1 0 1 0 0 0 0 0 0 0 0 0 0 1 0 0 0 0 0 0 0 0 0 0 0 0 1:1 2:-0.0945946 3:-0.0588235 4:-0.814159 5:-0.76731 6:-0.812374 7:-0.832785 8:-0.793722 
-0 1 0 1 0 0 0 0 0 0 0 0 0 0 1 0 0 0 0 0 0 0 0 0 0 0 0 1:1 2:-0.027027 3:-0.0588235 4:-0.823009 5:-0.77156 6:-0.819771 7:-0.794602 8:-0.807673 
-0 1 0 1 0 0 0 0 0 0 0 0 0 0 1 0 0 0 0 0 0 0 0 0 0 0 0 1:1 2:-0.027027 3:-0.0756303 4:-0.80531 5:-0.732247 6:-0.797579 7:-0.752469 8:-0.783757 
-0 1 0 1 0 0 0 0 0 0 0 0 0 0 1 0 0 0 0 0 0 0 0 0 0 0 0 1:1 2:-0.027027 3:-0.0252101 4:-0.787611 5:-0.773685 6:-0.826496 7:-0.853851 8:-0.766816 
-0 1 1 1 0 0 0 0 1 1 0 1 0 0 0 0 0 0 0 0 0 0.26549758901778864 0 0 0 0 0 1:1 2:0.0540541 3:0.0588235 4:-0.80531 5:-0.686205 6:-0.781439 7:-0.748519 8:-0.672147 
-0.038756249610705881 1 1 1 0 0 0 1 1 1 0 1 0 0 0 0 0 0 0 0 0 0 0 0 0 0 0 1:1 2:0.108108 3:0.109244 4:-0.769912 5:-0.599079 6:-0.664425 7:-0.532587 8:-0.696064 
-0 1 1 1 0 0 0 1 1 1 0 1 0 0 0 0 0 0 0 0 0 0 0 0 0 0 0 1:1 2:0.202703 3:0.092437 4:-0.79646 5:-0.530724 6:-0.559516 7:-0.553654 8:-0.718984 
-1 1 1 1 0 1 0 1 1 1 0 1 0 0 0 0 1 0 0 0 0 0 0 0 0 0 0 1:-1 2:0.297297 3:0.159664 4:-0.769912 5:-0.500266 6:-0.554808 7:-0.583937 8:-0.644245 
-1 1 1 1 0 1 0 1 1 1 0.17528993346741473 1 0 0 0 0 1 0 0 0 0 0 0 0 0 0 0 1:-1 2:0.324324 3:0.210084 4:-0.778761 5:-0.528953 6:-0.595158 7:-0.59447 8:-0.63428 
-0 0 0 0 0 0 0 0 0 0 0 0 1 1 1 0 0 0 0 1 0 0 0 0 0 0 0 1:1 2:-0.445946 3:-0.512605 4:-0.884956 5:-0.93802 6:-0.952925 7:-0.9526 8:-0.943199 
-0 0 0 0 0 0 0 0 0 0 0 0 1 1 1 0 0 0 0 0 0 0 0 0 0 0 0 1:1 2:-0.324324 3:-0.344538 4:-0.876106 5:-0.877811 6:-0.883658 7:-0.907834 8:-0.923269 
-0 0 0 0 0 0 0 0 0 0 0 0 1 1 1 0 0 0 0 0 0 0 0 0 0 0 0 1:1 2:-0.256757 3:-0.394958 4:-0.858407 5:-0.880999 6:-0.903833 7:-0.878868 8:-0.904335 
-0 0 0 0 0 0 0 0 0 0 0 0 1 0 1 0 0 0 0 0 0 0 0 0 0 0 0 1:1 2:-0.22973 3:-0.277311 4:-0.849558 5:-0.862582 6:-0.879623 7:-0.911784 8:-0.897359 
-0 0 0 1 0 0 0 0 0 0 0 0 1 0 1 0 0 0 0 0 0 0 0 0 0 0 0 1:1 2:-0.189189 3:-0.260504 4:-0.849558 5:-0.845582 6:-0.854741 7:-0.869651 8:-0.882412 
-0 0 0 1 0 0 0 0 0 0 0 0 0 0 1 0 0 0 0 0 0 0 0 0 0 0 0 1:1 2:-0.135135 3:-0.210084 4:-0.831858 5:-0.788914 6:-0.788837 7:-0.822251 8:-0.847534 
-0 0 0 1 0 0 0 0 0 0 0 0 0.048516694931523774 0 1 0 0 0 0 0 0 0 0 0 0 0 0 1:1 2:-0.108108 3:-0.344538 4:-0.840708 5:-0.797769 6:-0.829186 7:-0.835418 8:-0.842551 
-0 1 0 1 0 0 0 0 0 0 0 0 0 0 1 0 0 0 0 0 0 0 0 0 0 0 0 1:1 2:-0.0540541 3:-0.12605 4:-0.831858 5:-0.741101 6:-0.750504 7:-0.823568 8:-0.806677 
-0 1 0 1 0 0 0 0 0 0 0 0 0 0 1 0 0 0 0 0 0 0 0 0 0 0 0 1:1 2:-0.027027 3:-0.092437 4:-0.787611 5:-0.756331 6:-0.787492 7:-0.780118 8:-0.813652 
-0 1 1 1 0 0 0 0 1 0 0 0 0 0 0 0 0 0 0 0 0 0 0 0 0 0 0 1:1 2:0.0405405 3:-0.00840336 4:-0.80531 5:-0.670267 6:-0.715535 7:-0.740619 8:-0.728949 
-0 0 0 1 0 0 0 0 0 0 0 0 0 0 1 0 0 0 0 0 0 0 0 0 0 0 0 1:1 2:-0.135135 3:-0.193277 4:-0.823009 5:-0.793873 6:-0.813046 7:-0.838051 8:-0.839562 
-0 1 1 1 0 0 0 0 1 1 0 0 0 0 1 0 0 0 0 0 0 0 0 0 0 0 0 2:-0.121622 3:-0.159664 4:-0.716814 5:-0.740747 6:-0.768662 7:-0.815668 8:-0.793722 
-0 0 0 1 0 0 0 0 0 0 0 0 0 0 1 0 0 0 0 0 0 0 0 0 0 0 0 1:1 2:-0.0810811 3:-0.159664 4:-0.787611 5:-0.763414 6:-0.779422 7:-0.801185 8:-0.842551 
-0 1 1 1 0 0 0 0 1 1 0 0 0 0 0 0 0 0 0 0 0 0 0 0 0 0 0 1:-1 2:0.0405405 3:-0.0252101 4:-0.80531 5:-0.675934 6:-0.685272 7:-0.768269 8:-0.771799 
-0 1 1 1 0 0 0 0 1 1 0 1 0 0 0 0 0 0 0 0 0 0 0 0 0 0 0 1:-1 2:0.0540541 3:0.0252101 4:-0.80531 5:-0.650434 6:-0.642905 7:-0.777485 8:-0.761834 
-1 1 1 1 0 1 0 1 1 1 0 1 0 0 0 0 0.6538933654205672 0 0 0 0 0 0 0 0 0 0 2:0.0810811 3:0.092437 4:-0.752212 5:-0.51337 6:-0.575656 7:-0.655036 8:-0.613353 
-1 1 1 1 0 0 0 1 1 1 0 1 0 0 0 0 0 0 0 0 0 0 0 0 0 0 0 1:-1 2:0.162162 3:0.109244 4:-0.769912 5:-0.545599 6:-0.579691 7:-0.608953 8:-0.701046 
-1 1 1 1 0.97770469475782873 1 1 1 1 1 1 1 0 0 0 0 1 0 0 0 0 0 0 0 0 0 0 2:0.364865 3:0.277311 4:-0.734513 5:-0.407119 6:-0.532616 7:-0.456221 8:-0.620329 
-0 0 0 1 0 0 0 0 0 0 0 0 0 0 1 0 0 0 0 0 0 0 0 0 0 0 0 1:1 2:-0.108108 3:-0.159664 4:-0.840708 5:-0.80131 6:-0.848016 7:-0.849901 8:-0.813652 
-0 1 1 1 0 0 0 0 1 0.1200245979940452 0 0 0 0 1 0 0 0 0 0 0 0 0 0 0 0 0 1:-1 2:-0.0810811 3:-0.176471 4:-0.823009 5:-0.763768 6:-0.793544 7:-0.820935 8:-0.813652 
-0 1 1 1 0 0 0 0 1 1 0 0.29179296630159052 0 0 0 0 0 0 0 0 0 0 0 0 0 0 0 1:-1 2:-0.0540541 3:-0.0756303 4:-0.858407 5:-0.745706 6:-0.821116 7:-0.784068 8:-0.753861 
-0 0 0 1 0 0 0 0 0 0 0 0 0 0 1 0 0 0 0 0 0 0 0 0 0 0 0 1:1 2:-0.162162 3:-0.210084 4:-0.840708 5:-0.837082 6:-0.886348 7:-0.870968 8:-0.843548 
-0 1 1 1 0 0 0 0 0 0 0 0 0 0 1 0 0 0 0 0 0 0 0 0 0 0 0 2:-0.189189 3:-0.210084 4:-0.858407 5:-0.801665 6:-0.812374 7:-0.810402 8:-0.843548 
-0 1 1 1 0 0 0 0 1 1 0 0 0 0 0 0 0 0 0 0 0 0 0 0 0 0 0 1:-1 2:-0.0540541 3:-0.092437 4:-0.823009 5:-0.768018 6:-0.817754 7:-0.810402 8:-0.783757 
-0 1 1 1 0 0 0 0 1 0 0 0 0 0 1 0 0 0 0 0 0 0 0 0 0 0 0 1:-1 2:-0.162162 3:-0.193277 4:-0.831858 5:-0.764123 6:-0.803631 7:-0.753785 8:-0.823617 
-0 0 0 1 0 0 0 0 0 0 0 0 0 0 1 0 0 0 0 0 0 0 0 0 0 0 0 1:1 2:-0.121622 3:-0.142857 4:-0.823009 5:-0.911457 6:-0.858776 7:-0.814352 8:-0.833582 
-0 0 0 0 0 0 0 0 0 0 0 0 1 1 1 0 0 0 0 0 0 0 0 0 0 0 0 1:1 2:-0.337838 3:-0.378151 4:-0.867257 5:-0.87852 6:-0.899126 7:-0.907834 8:-0.903338 
-0 1 1 1 0 0 0 0 0 0 0 0 1 1 1 0 0 0 0 0.2912444017358865 0 0 0 0 0 0 0 1:-1 2:-0.472973 3:-0.529412 4:-0.876106 5:-0.926333 6:-0.938803 7:-0.953917 8:-0.931241 
-0 1 1 1 0 0 0 0 0 0 0 0 1 1 1 0 0 0 0 0 0 0 0 0 0 0 0 1:-1 2:-0.432432 3:-0.478992 4:-0.867257 5:-0.917478 6:-0.927371 7:-0.926267 8:-0.923269 
-0 1 1 1 0 0 0 0 1 1 0 1 0 0 0 0 0 0 0 0 0 0 0 0 0 0 0 1:-1 2:-0.0675676 3:-0.0252101 4:-0.814159 5:-0.69683 6:-0.765972 7:-0.748519 8:-0.743896 
-0 0 0 0 0 0 0 0 0 0 0 0 1 1 1 0 0 0 0 0 0 0 0 0 0 0 0 1:1 2:-0.310811 3:-0.310924 4:-0.858407 5:-0.866832 6:-0.898453 7:-0.899934 8:-0.873443 
-0 0 0 1 0 0 0 0 0 0 0 0 1 0 1 0 0 0 0 0 0 0 0 0 0 0 0 1:1 2:-0.243243 3:-0.243697 4:-0.80531 5:-0.843103 6:-0.891728 7:-0.863068 8:-0.843548 
-0 0 0 0 0 0 0 0 0 0 0 0 1 1 1 0 0 0 0 1 0 0 0 0 0 0 0 1:1 2:-0.459459 3:-0.512605 4:-0.867257 5:-0.940499 6:-0.960323 7:-0.951284 8:-0.943199 
-0 1 1 1 0 0 0 0 1 0 0 0 0 0 1 0 0 0 0 0 0 0 0 0 0 0 0 1:-1 2:-0.202703 3:-0.243697 4:-0.831858 5:-0.843811 6:-0.893073 7:-0.867018 8:-0.853513 
-1 1 1 1 0 0 0 1 1 1 0 1 0 0 0 0 0 1 0 0 0 0.54081832943301744 0 0 0 0 0 2:0.0810811 3:0.092437 4:-0.761062 5:-0.657163 6:-0.767989 7:-0.816985 8:-0.63428 
-0 1 1 1 0 0 0 0 0 0 0 0 0 0 1 0 0 0 0 0 0 0 0 0 0 0 0 1:1 2:-0.027027 3:-0.0252101 4:-0.787611 5:-0.684434 6:-0.704102 7:-0.706386 8:-0.753861 
-0 1 1 1 0 0 0 0 1 0.55442846714457228 0 0 0 0 1 0 0 0 0 0 0 0 0 0 0 0 0 2:-0.162162 3:-0.159664 4:-0.814159 5:-0.766602 6:-0.817754 7:-0.805135 8:-0.803687 
-0 1 0 1 0 0 0 0 0 0 0 0 0 0 1 0 0 0 0 0 0 0 0 0 0 0 0 1:1 2:-0.0810811 3:-0.092437 4:-0.823009 5:-0.728706 6:-0.776732 7:-0.790652 8:-0.753861 
-0 1 1 1 0 0 0 0 1 0 0 0 0 0 1 0 0 0 0 0 0 0 0 0 0 0 0 1:-1 2:-0.256757 3:-0.294118 4:-0.80531 5:-0.791394 6:-0.817754 7:-0.835418 8:-0.833582 
-0 0 0 0 0 0 0 0 0 0 0 0 1 1 1 0 0 0 0 0 0 0 0 0 0 0 0 1:1 2:-0.364865 3:-0.378151 4:-0.840708 5:-0.898353 6:-0.919973 7:-0.918367 8:-0.913303 
-0 0 0 0 0 0 0 0 0 0 0 0 1 1 1 0 0 0 0 0.7087555982641135 0 0 0 0 0 0 0 1:1 2:-0.391892 3:-0.445378 4:-0.840708 5:-0.900478 6:-0.924681 7:-0.913101 8:-0.917289 
-0 1 1 1 0 0 0 0 0 0 0 0 1 0 1 0 0 0 0 0 0 0 0 0 0 0 0 1:-1 2:-0.364865 3:-0.361345 4:-0.831858 5:-0.895166 6:-0.930733 7:-0.911784 8:-0.907324 
-0 1 1 1 0 0 0 0 0 0 0 0 0.93790462332008262 0 1 0 0 0 0 0 0 0 0 0 0 0 0 2:-0.256757 3:-0.294118 4:-0.840708 5:-0.870019 6:-0.901143 7:-0.892034 8:-0.883408 
-0 1 1 1 0 0 0 0 1 1 0 0 0 0 0 0 0 0 0 0 0 0 0 0 0 0 0 1:-1 2:-0.0135135 3:-0.092437 4:-0.79646 5:-0.725164 6:-0.782112 7:-0.772219 8:-0.777778 
-0 0 0 1 0 0 0 0 0 0 0 0 1 0 1 0 0 0 0 0 0 0 0 0 0 0 0 1:1 2:-0.189189 3:-0.176471 4:-0.867257 5:-0.899416 6:-0.921991 7:-0.922317 8:-0.915296 
-0 1 0 1 0 0 0 0 0 0 0 0 0 0 1 0 0 0 0 0 0 0 0 0 0 0 0 1:1 2:-0.0810811 3:-0.092437 4:-0.823009 5:-0.670976 6:-0.694015 7:-0.720869 8:-0.775785 
-1 1 1 1 0 0 0 1 1 1 0 1 0 0 0 0 0 0 0 0 0 0 0 0 0 0 0 1:-1 2:0.0945946 3:0.0588235 4:-0.761062 5:-0.5541 6:-0.537996 7:-0.734036 8:-0.682113 
-1 1 1 1 0 1 0 1 1 1 0.7911039751212845 1 0 0 0 0 1 0 0 0 0 0 0 0 0 0 0 1:1 2:0.162162 3:0.12605 4:-0.672566 5:-0.567558 6:-0.642233 7:-0.627386 8:-0.660189 
-0 0 0 0 0 0 0 0 0 0 0 0 1 1 1 0 0 0 0 0 0 0 0 0 0 0 0 1:1 2:-0.351351 3:-0.394958 4:-0.876106 5:-0.895874 6:-0.923336 7:-0.915734 8:-0.909317 
-0 0 0 0 0 0 0 0 0 0 0 0 1 0 1 0 0 0 0 0 0 0 0 0 0 0 0 1:1 2:-0.283784 3:-0.294118 4:-0.876106 5:-0.870374 6:-0.917283 7:-0.897301 8:-0.863478 
-0 0 0 1 0 0 0 0 0 0 0 0 0 0 1 0 0 0 0 0 0 0 0 0 0 0 0 1:1 2:-0.148649 3:-0.193277 4:-0.823009 5:-0.80379 6:-0.845999 7:-0.845951 8:-0.843548 
-0 1 0 1 0 0 0 0 0 0 0 0 0 0 1 0 0 0 0 0 0 0 0 0 0 0 0 1:1 2:-0.0810811 3:-0.092437 4:-0.823009 5:-0.765185 6:-0.806994 7:-0.813035 8:-0.813652 
-0 1 0 1 0 0 0 0 0 0 0 0 0 0 1 0 0 0 0 0 0 0 0 0 0 0 0 1:1 2:-0.0135135 3:-0.0588235 4:-0.80531 5:-0.726226 6:-0.765972 7:-0.781435 8:-0.781764 
-0 1 1 1 0 0 0 0 1 0 0 0 0 0 1 0 0 0 0 0 0 0 0 0 0 0 0 1:1 2:-0.0135135 3:0.00840336 4:-0.787611 5:-0.650788 6:-0.690652 7:-0.711652 8:-0.753861 
-0 1 1 1 0 0 0 0 1 1 0 1 0 0 0 0 0 0 0 0 0 0 0 0 0 0 0 2:0.027027 3:-0.00840336 4:-0.787611 5:-0.678767 6:-0.739744 7:-0.726136 8:-0.728949 
-0 1 1 1 0 0 0 0 0 0 0 0 0 0 1 0 0 0 0 0 0 0 0 0 0 0 0 1:1 2:0.0405405 3:-0.0252101 4:-0.787611 5:-0.707101 6:-0.735037 7:-0.768269 8:-0.789736 
-0 1 1 1 0 0 0 0 1 0 0 0 0 0 0 0 0 0 0 0 0 0 0 0 0 0 0 1:1 2:0.0540541 3:0.00840336 4:-0.80531 5:-0.665663 6:-0.691997 7:-0.736669 8:-0.763827 
-0 1 1 1 0 0 0 0 1 1 0 0 0 0 0 0 0 0 0 0 0 0 0 0 0 0 0 1:1 2:0.0810811 3:0.109244 4:-0.80531 5:-0.595183 6:-0.583053 7:-0.731402 8:-0.731938 
-1 1 1 1 0 0 0 1 1 1 0 1 0 0 0 0 0 0 0 0 0 0 0 0 0 0 0 1:-1 2:0.148649 3:0.0756303 4:-0.743363 5:-0.561183 6:-0.632818 7:-0.564187 8:-0.707025 
-0 1 1 1 0 0 0 0 1 1 0 0 0 0 0 0 0 0 0 0 0 0 0 0 0 0 0 1:1 2:0.148649 3:0.092437 4:-0.80531 5:-0.651496 6:-0.708137 7:-0.764319 8:-0.738914 
-1 1 1 1 0 1 0 1 1 1 0 1 0 0 0 0 1 0 0 0 0 0 0 0 0 0 0 1:1 2:0.162162 3:0.109244 4:-0.787611 5:-0.576058 6:-0.679892 7:-0.627386 8:-0.63428 
-1 1 1 1 0 1 1 1 1 1 1 1 0 0 0 0 1 0 0 0 0 0 0 0 0 0 0 1:-1 2:0.216216 3:0.210084 4:-0.761062 5:-0.43864 6:-0.471419 7:-0.503621 8:-0.600399 
-1 1 1 1 1 1 1 1 1 1 1 1 0 0 0 1 1 0 0 0 0 0 0 0 0 0 0 2:0.297297 3:0.243697 4:-0.752212 5:-0.319285 6:-0.409549 7:-0.411455 8:-0.524664 
-1 1 1 1 1 1 1 1 1 1 1 1 0 0 0 1 1 0.87174504155602961 0 0 0 0.072233455364084431 0 0 0 0 0 1:-1 2:0.351351 3:0.327731 4:-0.725664 5:-0.32991 6:-0.424344 7:-0.458855 8:-0.486796 
-1 1 1 1 1 1 1 1 1 1 1 1 0 0 1 1 1 0 0 0 0 1 0 0 0 0 0 1:-1 2:0.391892 3:0.378151 4:-0.752212 5:-0.260492 6:-0.369872 7:-0.308756 8:-0.478824 
-0 1 0 1 0 0 0 0 0 0 0 0 0 0 1 0 0 0 0 0 0 0 0 0 0 0 0 1:1 2:-0.0540541 3:-0.0420168 4:-0.823009 5:-0.752435 6:-0.782784 7:-0.785385 8:-0.815645 
-0 1 0 1 0 0 0 0 0 0 0 0 0 0 1 0 0 0 0 0 0 0 0 0 0 0 0 1:1 2:-0.0405405 3:-0.109244 4:-0.823009 5:-0.755977 6:-0.781439 7:-0.790652 8:-0.823617 
-0 1 0 1 0 0 0 0 0 0 0 0 0 0 1 0 0 0 0 0 0 0 0 0 0 0 0 1:1 2:-0.0135135 3:-0.0420168 4:-0.823009 5:-0.713122 6:-0.720242 7:-0.807768 8:-0.797708 
-0 1 1 1 0 0 0 0 0 0 0 0 0 0 1 0 0 0 0 0 0 0 0 0 0 0 0 1:1 2:-0.0135135 3:-0.0588235 4:-0.79646 5:-0.702851 6:-0.768662 7:-0.799868 8:-0.777778 
-0 1 1 1 0 0 0 0 0 0 0 0 0 0 1 0 0 0 0 0 0 0 0 0 0 0 0 1:1 2:0.0405405 3:-0.0252101 4:-0.80531 5:-0.735435 6:-0.796234 7:-0.848585 8:-0.753861 
-0 1 1 1 0 0 0 0 1 0 0 0 0 0 0 0 0 0 0 0 0 0 0 0 0 0 0 1:1 2:0.0540541 3:0.00840336 4:-0.814159 5:-0.68833 6:-0.720915 7:-0.744569 8:-0.766816 
-0 1 1 1 0 0 0 0 0 0 0 0 0 0 0 0 0 0 0 0 0 0 0 0 0 0 0 1:1 2:0.0810811 3:0.0420168 4:-0.823009 5:-0.90827 6:-0.728985 7:-0.770902 8:-0.757848 
-0 1 1 1 0 0 0 0 1 1 0 1 0 0 0 0 0 0 0 0 0 0 0 0 0 0 0 1:1 2:0.0810811 3:0.0756303 4:-0.79646 5:-0.632725 6:-0.687962 7:-0.687953 8:-0.713004 
-0 1 1 1 0 0 0 0 1 1 0 1 0 0 0 0 0 0 0 0 0 0 0 0 0 0 0 1:1 2:0.135135 3:0.092437 4:-0.787611 5:-0.638746 6:-0.687962 7:-0.684003 8:-0.731938 
-1 1 1 1 0 1 0 1 1 1 0 1 0 0 0 0 0 0 0 0 0 0 0 0 0 0 0 1:-1 2:0.162162 3:0.159664 4:-0.761062 5:-0.489286 6:-0.494284 7:-0.608953 8:-0.648231 
-1 1 1 1 0.89662301264384592 1 1 1 1 1 1 1 0 0 0 0 1 0 0 0 0 0 0 0 0 0 0 1:-1 2:0.27027 3:0.226891 4:-0.743363 5:-0.450328 6:-0.497646 7:-0.59447 8:-0.59442 
-1 1 1 1 0 1 0 1 1 1 1 1 0 0 0 0 1 0 0 0 0 0 0 0 0 0 0 1:-1 2:0.27027 3:0.226891 4:-0.787611 5:-0.444307 6:-0.459314 7:-0.514154 8:-0.664175 
-1 1 1 1 1 1 1 1 1 1 1 1 0 0 0 0.7330831876772852 1 0 0 0 0 0 0 0 0 0 0 2:0.378378 3:0.327731 4:-0.734513 5:-0.336993 6:-0.373235 7:-0.466754 8:-0.554559 
-1 1 1 1 1 1 1 1 1 1 1 1 0 0 1 1 1 0 0 0 0 0 0 0 0 0 0 1:-1 2:0.459459 3:0.327731 4:-0.734513 5:-0.152825 6:-0.0504371 7:-0.449638 8:-0.503737 
-0 0 0 0 0 0 0 0 0 0 0 0 1 0 1 0 0 0 0 0 0 0 0 0 0 0 0 1:1 2:-0.243243 3:-0.327731 4:-0.858407 5:-0.868957 6:-0.896436 7:-0.868334 8:-0.887394 
-0 0 0 1 0 0 0 0 0 0 0 0 1 0 1 0 0 0 0 0 0 0 0 0 0 0 0 1:1 2:-0.202703 3:-0.260504 4:-0.840708 5:-0.855144 6:-0.872226 7:-0.897301 8:-0.887394 
-0 0 0 1 0 0 0 0 0 0 0 0 1 0 1 0 0 0 0 0 0 0 0 0 0 0 0 1:1 2:-0.189189 3:-0.260504 4:-0.831858 5:-0.838852 6:-0.873571 7:-0.857801 8:-0.87145 
-0 0 0 1 0 0 0 0 0 0 0 0 0 0 1 0 0 0 0 0 0 0 0 0 0 0 0 1:1 2:-0.162162 3:-0.176471 4:-0.778761 5:-0.758456 6:-0.772024 7:-0.807768 8:-0.841555 
-0 0 0 1 0 0 0 0 0 0 0 0 0 0 1 0 0 0 0 0 0 0 0 0 0 0 0 1:1 2:-0.121622 3:-0.159664 4:-0.823009 5:-0.759518 6:-0.764627 7:-0.836735 8:-0.830593 
-0 0 0 1 0 0 0 0 0 0 0 0 0 0 1 0 0 0 0 0 0 0 0 0 0 0 0 1:1 2:-0.108108 3:-0.159664 4:-0.823009 5:-0.809456 6:-0.871553 7:-0.840685 8:-0.821624 
-0 0 0 1 0 0 0 0 0 0 0 0 0 0 1 0 0 0 0 0 0 0 0 0 0 0 0 1:1 2:-0.108108 3:-0.159664 4:-0.823009 5:-0.811581 6:-0.847344 7:-0.861751 8:-0.833582 
-0 1 0 1 0 0 0 0 0 0 0 0 0 0 1 0 0 0 0 0 0 0 0 0 0 0 0 1:1 2:-0.0810811 3:-0.0588235 4:-0.823009 5:-0.747831 6:-0.774042 7:-0.824885 8:-0.793722 
-0 1 0 1 0 0 0 0 0 0 0 0 0 0 1 0 0 0 0 0 0 0 0 0 0 0 0 1:1 2:-0.0405405 3:-0.0420168 4:-0.80531 5:-0.743226 6:-0.787492 7:-0.776169 8:-0.793722 
-0 1 0 1 0 0 0 0 0 0 0 0 0 0 1 0 0 0 0 0 0 0 0 0 0 0 0 1:1 2:0.0135135 3:-0.0588235 4:-0.831858 5:-0.753143 6:-0.784129 7:-0.836735 8:-0.766816 
-0 1 1 1 0 0 0 0 1 0 0 0 0 0 0 0 0 0 0 0 0 0 0 0 0 0 0 1:1 2:0.0810811 3:0.00840336 4:-0.79646 5:-0.633434 6:-0.626093 7:-0.769585 8:-0.738914 
-1 1 1 1 0 1 0.46392356943804908 1 1 1 1 1 0 0 0 0 1 0 0 0 0 0 0 0 0 0 0 1:-1 2:0.189189 3:0.193277 4:-0.752212 5:-0.480432 6:-0.589106 7:-0.640553 8:-0.604385 
-0 0 0 0 0 0 0 0 0 0 0 0 1 1 1 0 0 0 0 0 0 0 0 0 0 0 0 1:1 2:-0.337838 3:-0.394958 4:-0.840708 5:-0.87179 6:-0.869536 7:-0.913101 8:-0.919283 
-0 0 0 0 0 0 0 0 0 0 0 0 1 1 1 0 0 0 0 0 0 0 0 0 0 0 0 1:1 2:-0.310811 3:-0.428571 4:-0.867257 5:-0.868957 6:-0.874243 7:-0.897301 8:-0.918286 
-0 0 0 1 0 0 0 0 0 0 0 0 0 0 1 0 0 0 0 0 0 0 0 0 0 0 0 1:1 2:-0.148649 3:-0.210084 4:-0.840708 5:-0.815477 6:-0.843981 7:-0.859118 8:-0.849527 
-0 1 0 1 0 0 0 0 0 0 0 0 0 0 1 0 0 0 0 0 0 0 0 0 0 0 0 1:1 2:0.0135135 3:-0.0588235 4:-0.814159 5:-0.744997 6:-0.789509 7:-0.791968 8:-0.784753 
-0 1 1 1 0 0 0 0 0 0 0 0 0 0 0.20206705951711043 0 0 0 0 0 0 0 0 0 0 0 0 1:1 2:0.027027 3:-0.00840336 4:-0.814159 5:-0.686559 6:-0.714862 7:-0.719552 8:-0.780767 
-0 1 1 1 0 0 0 0 1 0 0 0 0 0 0 0 0 0 0 0 0 0 0 0 0 0 0 1:1 2:0.0405405 3:0.0420168 4:-0.79646 5:-0.639455 6:-0.683255 7:-0.690586 8:-0.757848 
-1 1 1 1 0.41176888841921078 1 0.18364979957870711 1 1 1 1 1 0 0 0 0 1 0 0 0 0 0 0 0 0 0 0 1:1 2:0.202703 3:0.142857 4:-0.743363 5:-0.455994 6:-0.431069 7:-0.627386 8:-0.625311 
-1 1 1 1 0 1 1 1 1 1 1 1 0 0 0 0 1 0 0 0 0 0 0 0 0 0 0 1:-1 2:0.243243 3:0.176471 4:-0.752212 5:-0.421994 6:-0.460659 7:-0.549704 8:-0.626308 
-0 0 0 0 0 0 0 0 0 0 0 0 1 0.30611690614615711 1 0 0 0 0 0 0 0 0 0 0 0 0 1:1 2:-0.297297 3:-0.310924 4:-0.840708 5:-0.862228 6:-0.883658 7:-0.893351 8:-0.89138 
-0 0 0 0 0 0 0 0 0 0 0 0 1 0 1 0 0 0 0 0 0 0 0 0 0 0 0 1:1 2:-0.202703 3:-0.277311 4:-0.840708 5:-0.870019 6:-0.907196 7:-0.889401 8:-0.873443 
-0 0 0 1 0 0 0 0 0 0 0 0 1 0 1 0 0 0 0 0 0 0 0 0 0 0 0 1:1 2:-0.189189 3:-0.243697 4:-0.849558 5:-0.849478 6:-0.886348 7:-0.873601 8:-0.859492 
-0 1 0 1 0 0 0 0 0 0 0 0 0 0 1 0 0 0 0 0 0 0 0 0 0 0 0 1:1 2:-0.027027 3:-0.0588235 4:-0.831858 5:-0.790331 6:-0.854741 7:-0.848585 8:-0.773792 
-0 1 0 1 0 0 0 0 0 0 0 0 0 0 1 0 0 0 0 0 0 0 0 0 0 0 0 1:1 3:-0.142857 4:-0.840708 5:-0.763414 6:-0.792199 7:-0.764319 8:-0.832586 
-1 1 1 1 1 1 1 1 1 1 1 1 0 0 1 1 1 1 0 0 0.60167465119624797 1 0 0 0.86047220596435348 0 0.98218474747723961 1:-1 2:0.5 3:0.529412 4:-0.699115 5:-0.159554 6:-0.340282 7:-0.194207 8:-0.309417 
-0 1 1 1 0 0 0 0 1 1 0 1 0 0 0 0 0 0 0 0 0 0 0 0 0 0 0 1:1 2:0.148649 3:0.0588235 4:-0.79646 5:-0.594475 6:-0.589778 7:-0.706386 8:-0.721973 
-0 0 0 1 0 0 0 0 0 0 0 0 0 0 1 0 0 0 0 0 0 0 0 0 0 0 0 1:1 2:-0.148649 3:-0.176471 4:-0.823009 5:-0.812644 6:-0.852724 7:-0.845951 8:-0.835575 
-0 1 0 1 0 0 0 0 0 0 0 0 0 0 1 0 0 0 0 0 0 0 0 0 0 0 0 1:1 2:-0.027027 3:-0.0588235 4:-0.814159 5:-0.751018 6:-0.791527 7:-0.869651 8:-0.776781 
-0 1 1 1 0 0 0 0 1 0 0 0 0 0 0 0 0 0 0 0 0 0 0 0 0 0 0 1:1 2:0.135135 3:-0.0756303 4:-0.823009 5:-0.689747 6:-0.763282 7:-0.751152 8:-0.704036 
-1 1 1 1 0 0 0 1 1 1 0 1 0 0 0 0 0 0 0 0 0 0 0 0 0 0 0 1:1 2:0.189189 3:0.109244 4:-0.778761 5:-0.596246 6:-0.682582 7:-0.623436 8:-0.674141 
-0 0 0 1 0 0 0 0 0 0 0 0 1 0 1 0 0 0 0 0 0 0 0 0 0 0 0 1:1 2:-0.243243 3:-0.277311 4:-0.867257 5:-0.856915 6:-0.591796 7:-0.880184 8:-0.884405 
-0 1 0 1 0 0 0 0 0 0 0 0 0 0 1 0 0 0 0 0 0 0 0 0 0 0 0 1:1 2:-0.0540541 3:-0.142857 4:-0.831858 5:-0.783602 6:-0.814391 7:-0.805135 8:-0.817638 
-0 0 0 1 0 0 0 0 0 0 0 0 1 0 1 0 0 0 0 0 0 0 0 0 0 0 0 1:1 2:-0.189189 3:-0.226891 4:-0.858407 5:-0.841332 6:-0.870208 7:-0.895984 8:-0.858495 
-0 0 0 1 0 0 0 0 0 0 0 0 0 0 1 0 0 0 0 0 0 0 0 0 0 0 0 1:1 2:-0.175676 3:-0.210084 4:-0.849558 5:-0.839561 6:-0.882986 7:-0.878868 8:-0.853513 
-0 1 0 1 0 0 0 0 0 0 0 0 0 0 1 0 0 0 0 0 0 0 0 0 0 0 0 1:1 2:-0.0810811 3:-0.109244 4:-0.79646 5:-0.785727 6:-0.837929 7:-0.807768 8:-0.815645 
-0 1 0 1 0 0 0 0 0 0 0 0 0 0 1 0 0 0 0 0 0 0 0 0 0 0 0 1:1 2:-0.0540541 3:-0.092437 4:-0.814159 5:-0.719851 6:-0.757229 7:-0.788018 8:-0.768809 
-0 1 0 1 0 0 0 0 0 0 0 0 0 0 1 0 0 0 0 0 0 0 0 0 0 0 0 1:1 2:-0.0135135 3:-0.0420168 4:-0.823009 5:-0.732956 6:-0.769334 7:-0.786702 8:-0.801694 
-1 1 1 1 1 1 1 1 1 1 1 1 0 0 0 0 1 0 0 0 0 0 0 0 0 0 0 2:0.283784 3:0.243697 4:-0.752212 5:-0.327076 6:-0.342972 7:-0.489138 8:-0.567514 
-1 1 1 1 0 1 0 1 1 1 0 1 0 0 0 0 0 0 0 0 0.090805055214836922 0 0 0 0 0 0 1:-1 2:0.256757 3:0.193277 4:-0.769912 5:-0.604746 6:-0.68191 7:-0.720869 8:-0.65421 
-0 0 0 0 0 0 0 0 0 0 0 0 1 1 1 0 0 0 0 1 0 0 0 0 0 0 0 1:1 2:-0.459459 3:-0.512605 4:-0.884956 5:-0.918895 6:-0.925353 7:-0.967084 8:-0.933234 
-0 1 1 1 0 0 0 0 0 0 0 0 0 0 1 0 0 0 0 0 0 0 0 0 0 0 0 2:-0.202703 3:-0.193277 4:-0.823009 5:-0.811227 6:-0.844654 7:-0.853851 8:-0.836572 
-1 1 1 1 1 1 1 1 1 1 1 1 0 0 0 0.067109984029203984 1 0 0 0 0 0 0 0 0 0 0 1:-1 2:0.283784 3:0.176471 4:-0.734513 5:-0.347264 6:-0.447209 7:-0.439105 8:-0.524664 
-0 0 0 0 0 0 0 0 0 0 0 0 1 1 1 0 0 0 0 0 0 0 0 0 0 0 0 1:1 2:-0.364865 3:-0.394958 4:-0.867257 5:-0.894103 6:-0.926026 7:-0.918367 8:-0.903338 
-0 1 1 1 0 0 0 0 1 1 0 1 0 0 0 0 0 0 0 0 0 0 0 0 0 0 0 2:-0.027027 3:-0.00840336 4:-0.814159 5:-0.704268 6:-0.740417 7:-0.736669 8:-0.743896 
-1 1 1 1 0 0 0 1 1 1 0 1 0 0 0 0 0 0 0 0 0 0 0 0 0 0 0 1:-1 2:0.027027 3:0.0756303 4:-0.778761 5:-0.65858 6:-0.7115 7:-0.732719 8:-0.674141 
-0 1 0.41819176055806878 1 0 0 0 0 0 0 0 0 1 1 1 0 0 0 0 1 0 0 0 0 0 0 0 1:-1 2:-0.486486 3:-0.512605 4:-0.884956 5:-0.941916 6:-0.955615 7:-0.973667 8:-0.943199 
-0 0 0 0 0 0 0 0 0 0 0 0 1 1 1 0 0 0 0 0 0 0 0 0 0 0 0 2:-0.378378 3:-0.428571 4:-0.876106 5:-0.896228 6:-0.922663 7:-0.913101 8:-0.913303 
-0 0 0 0 0 0 0 0 0 0 0 0 1 1 1 0 0 0 0 0 0 0 0 0 0 0 0 1:1 2:-0.283784 3:-0.344538 4:-0.867257 5:-0.876395 6:-0.895763 7:-0.894668 8:-0.903338 
-0 0 0 1 0 0 0 0 0 0 0 0 0 0 1 0 0 0 0 0 0 0 0 0 0 0 0 1:1 2:-0.148649 3:-0.12605 4:-0.840708 5:-0.782185 6:-0.803631 7:-0.869651 8:-0.823617 
-0 0 0 1 0 0 0 0 0 0 0 0 0 0 1 0 0 0 0 0 0 0 0 0 0 0 0 1:1 2:-0.135135 3:-0.142857 4:-0.831858 5:-0.779706 6:-0.825151 7:-0.811718 8:-0.817638 
-0 1 0 1 0 0 0 0 0 0 0 0 0 0 1 0 0 0 0 0 0 0 0 0 0 0 0 1:1 2:-0.0405405 3:-0.109244 4:-0.823009 5:-0.728351 6:-0.743107 7:-0.805135 8:-0.803687 
-0 1 1 1 0 0 0 1 1 1 0 1 0 0 0 0 0 0 0 0 0 0 0 0 0 0 0 2:0.121622 3:0.0588235 4:-0.814159 5:-0.628475 6:-0.666443 7:-0.736669 8:-0.708022 
-1 1 1 1 1 1 1 1 1 1 1 1 0 0 0 0 1 0 0 0 0 0 0 0 0 0 0 1:-1 2:0.310811 3:0.327731 4:-0.752212 5:-0.36391 6:-0.36651 7:-0.522054 8:-0.56851 
-0 0 0 1 0 0 0 0 0 0 0 0 0 0 1 0 0 0 0 0 0 0 0 0 0 0 0 1:1 2:-0.189189 3:-0.226891 4:-0.840708 5:-0.819373 6:-0.860794 7:-0.838051 8:-0.853513 
-0 1 1 1 0 0 0 0 1 0 0 0 0 0 0 0 0 0 0 0 0 0 0 0 0 0 0 1:1 2:0.0540541 3:0.0588235 4:-0.823009 5:-0.64335 6:-0.686617 7:-0.711652 8:-0.723966 
-0 1 1 1 0 0 0 0 1 1 0 1 0 0 0 0 0 0 0 0 0 0 0 0 0 0 0 2:0.0540541 3:0.00840336 4:-0.79646 5:-0.668142 6:-0.738399 7:-0.690586 8:-0.751868 
-0 1 1 1 0 0 0 0 1 0.13838650016908938 0 0 0 0 0 0 0 0 0 0 0 0 0 0 0 0 0 1:1 2:0.108108 3:0.0588235 4:-0.823009 5:-0.638038 6:-0.706792 7:-0.718236 8:-0.743896 
-1 1 1 1 0 0 0 1 1 1 0 1 0 0 0 0 0 0 0 0 0 0 0 0 0 0 0 1:-1 2:0.202703 3:0.12605 4:-0.787611 5:-0.545599 6:-0.613315 7:-0.587887 8:-0.682113 
-1 1 1 1 0 1 0.93997435453218503 1 1 1 1 1 0 0 0 0 1 0 0 0 0 0 0 0 0 0 0 1:-1 2:0.202703 3:0.142857 4:-0.778761 5:-0.426598 6:-0.458642 7:-0.564187 8:-0.604385 
-1 1 1 1 0 1 1 1 1 1 1 1 0 0 0 0 1 0 0 0 0 0 0 0 0 0 0 2:0.216216 3:0.294118 4:-0.778761 5:-0.497432 6:-0.570276 7:-0.58262 8:-0.621325 
-0 0 0 1 0 0 0 0 0 0 0 0 0 0 1 0 0 0 0 0 0 0 0 0 0 0 0 1:1 2:-0.121622 3:-0.210084 4:-0.823009 5:-0.818665 6:-0.861466 7:-0.845951 8:-0.840558 
-0 1 0 1 0 0 0 0 0 0 0 0 0 0 1 0 0 0 0 0 0 0 0 0 0 0 0 1:1 2:-0.027027 3:-0.0588235 4:-0.80531 5:-0.710289 6:-0.728985 7:-0.752469 8:-0.803687 
-0 1 0 1 0 0 0 0 0 0 0 0 0 0 1 0 0 0 0 0 0 0 0 0 0 0 0 1:1 2:-0.0135135 3:-0.0756303 4:-0.80531 5:-0.732247 6:-0.736382 7:-0.793285 8:-0.823617 
-0 1 1 1 0 0 0 0 1 0 0 0 0 0 0 0 0 0 0 0 0 0 0 0 0 0 0 1:1 2:0.0675676 3:0.00840336 4:-0.743363 5:-0.683726 6:-0.791527 7:-0.732719 8:-0.757848 
-0 1 1 1 0 0 0 0 1 0 0 0 0 0 0 0 0 0 0 0 0 0 0 0 0 0 0 1:1 2:0.0675676 3:0.00840336 4:-0.79646 5:-0.707101 6:-0.776732 7:-0.780118 8:-0.725959 
-0 1 1 1 0 0 0 0 1 0 0 0 0 0 0 0 0 0 0 0 0 0 0 0 0 0 0 1:1 2:0.108108 3:0.0588235 4:-0.79646 5:-0.550204 6:-0.490249 7:-0.64977 8:-0.747882 
-0 0 0 0 0 0 0 0 0 0 0 0 1 0 1 0 0 0 0 0 0 0 0 0 0 0 0 1:1 2:-0.256757 3:-0.310924 4:-0.840708 5:-0.876395 6:-0.904506 7:-0.907834 8:-0.888391 
-0 0 0 0 0 0 0 0 0 0 0 0 1 0 1 0 0 0 0 0 0 0 0 0 0 0 0 1:1 2:-0.22973 3:-0.294118 4:-0.840708 5:-0.855853 6:-0.872226 7:-0.903884 8:-0.886398 
-0 0 0 1 0 0 0 0 0 0 0 0 1 0 1 0 0 0 0 0 0 0 0 0 0 0 0 1:1 2:-0.216216 3:-0.260504 4:-0.840708 5:-0.835311 6:-0.856086 7:-0.867018 8:-0.878426 
-0 0 0 1 0 0 0 0 0 0 0 0 0 0 1 0 0 0 0 0 0 0 0 0 0 0 0 1:1 2:-0.175676 3:-0.226891 4:-0.840708 5:-0.838144 6:-0.866174 7:-0.898618 8:-0.84853 
-0 1 1 1 0 0 0 0 1 1 0 1 0 0 0 0 0 0 0 0 0 0 0 0 0 0 0 1:-1 2:-0.027027 3:-0.0588235 4:-0.80531 5:-0.690809 6:-0.72226 7:-0.813035 8:-0.740907 
-0 1 1 1 0 0 0 0 1 0 0 0 0 0 0 0 0 0 0 0 0 0 0 0 0 0 0 1:1 2:0.0810811 3:-0.00840336 4:-0.79646 5:-0.648663 6:-0.68191 7:-0.740619 8:-0.723966 
-1 1 1 1 0 0 0 1 1 1 0 1 0 0 0 0 0 0 0 0 0 0 0 0 0 0 0 2:0.135135 3:0.0588235 4:-0.787611 5:-0.580662 6:-0.624748 7:-0.711652 8:-0.728949 
-0 1 0 1 0 0 0 0 0 0 0 0 0 0 1 0 0 0 0 0 0 0 0 0 0 0 0 1:1 2:-0.0675676 3:-0.092437 4:-0.80531 5:-0.771206 6:-0.833894 7:-0.802502 8:-0.798705 
-1 1 1 1 0 0 0 1 1 1 0 1 0 0 0 0 0 0 0 0 0 0 0 0 0 0 0 2:0.175676 3:0.0756303 4:-0.80531 5:-0.590225 6:-0.616005 7:-0.690586 8:-0.708022 
-1 1 1 1 1 1 1 1 1 1 1 1 0 0 0 0 1 0 0 0 0.30170189444125356 0 0 0 0 0 0 1:-1 2:0.27027 3:0.260504 4:-0.725664 5:-0.432265 6:-0.451244 7:-0.62212 8:-0.54858 
-0 0 0 0 0 0 0 0 0 0 0 0 1 1 1 0 0 0 0 1 0 0 0 0 0 0 0 1:1 2:-0.432432 3:-0.428571 4:-0.876106 5:-0.930228 6:-0.944183 7:-0.9526 8:-0.933234 
-0 1 1 1 0 0 0 0 0 0 0 0 0 0 1 0 0 0 0 0 0 0 0 0 0 0 0 1:1 3:-0.0252101 4:-0.787611 5:-0.715601 6:-0.774042 7:-0.784068 8:-0.743896 
-0 1 1 1 0 0 0 0 1 0 0 0 0 0 0 0 0 0 0 0 0 0 0 0 0 0 0 1:1 2:0.0810811 3:0.0420168 4:-0.814159 5:-0.705684 6:-0.780094 7:-0.740619 8:-0.749875 
-1 1 1 1 0 1 0 1 1 1 0 1 0 0 0 0 1 0 0 0 0 0 0 0 0 0 0 1:-1 2:0.243243 3:0.176471 4:-0.752212 5:-0.483265 6:-0.549428 7:-0.59052 8:-0.624315 
-0 0 0 1 0 0 0 0 0 0 0 0 1 0 1 0 0 0 0 0 0 0 0 0 0 0 0 1:1 2:-0.256757 3:-0.344538 4:-0.823009 5:-0.717018 6:-0.769334 7:-0.835418 8:-0.752865 
-0 0 0 1 0 0 0 0 0 0 0 0 0 0 1 0 0 0 0 0 0 0 0 0 0 0 0 1:1 2:-0.22973 3:-0.344538 4:-0.79646 5:-0.672038 6:-0.718897 7:-0.723502 8:-0.747882 
-0 0 0 1 0 0 0 0 0 0 0 0 0 0 1 0 0 0 0 0 0 0 0 0 0 0 0 1:1 2:-0.175676 3:-0.243697 4:-0.831858 5:-0.79706 6:-0.779422 7:-0.886768 8:-0.869457 
-0 1 1 1 0 0 0 0 1 1 0 1 0 0 1 0 0 0 0 0 0 0 0 0 0 0 0 2:-0.175676 3:-0.109244 4:-0.79646 5:-0.542766 6:-0.566913 7:-0.652403 8:-0.676134 
-1 1 1 1 1 1 1 1 1 1 1 1 0 0 0 0 1 0 0 0 0 0.48503171087580327 0 0 0 0 0 2:0.108108 3:0.0420168 4:-0.734513 5:-0.353639 6:-0.443847 7:-0.477288 8:-0.458894 
-1 1 1 1 0 1 0 1 1 1 0 1 0 0 0 0 1 0 0 0 0 0 0 0 0 0 0 1:-1 2:0.162162 3:0.159664 4:-0.734513 5:-0.452453 6:-0.537996 7:-0.587887 8:-0.63428 
-0 0 0 0 0 0 0 0 0 0 0 0 1 0 1 0 0 0 0 0 0 0 0 0 0 0 0 1:1 2:-0.22973 3:-0.294118 4:-0.849558 5:-0.869311 6:-0.910558 7:-0.903884 8:-0.880419 
-0 1 0 1 0 0 0 0 0 0 0 0 0 0 1 0 0 0 0 0 0 0 0 0 0 0 0 1:1 2:-0.0405405 3:-0.0756303 4:-0.831858 5:-0.774748 6:-0.842636 7:-0.830151 8:-0.757848 
-0 1 1 1 0 0 0 0 0 0 0 0 0 0 1 0 0 0 0 0 0 0 0 0 0 0 0 1:1 2:0.0135135 3:-0.0588235 4:-0.79646 5:-0.722685 6:-0.739072 7:-0.814352 8:-0.783757 
-0 0 0 0 0 0 0 0 0 0 0 0 1 1 1 0 0 0 0 0 0 0 0 0 0 0 0 1:1 2:-0.337838 3:-0.411765 4:-0.893805 5:-0.910041 6:-0.918628 7:-0.928901 8:-0.932237 
-0 0 0 0 0 0 0 0 0 0 0 0 1 0 1 0 0 0 0 0 0 0 0 0 0 0 0 1:1 2:-0.243243 3:-0.277311 4:-0.823009 5:-0.841686 6:-0.853396 7:-0.890718 8:-0.875436 
-1 1 1 1 1 1 1 1 1 1 1 1 0 0 1 1 1 0.99086444106658522 0 0 0 1 0 0 0 0 0 1:-1 2:0.472973 3:0.361345 4:-0.699115 5:-0.203117 6:-0.281775 7:-0.307439 8:-0.413054 
-0 1 1 1 0 0 0 0.20372977678582252 1 1 0 1 0 0 0 0 0 0 0 0 0 0 0 0 0 0 0 2:-0.0540541 3:-0.00840336 4:-0.823009 5:-0.687976 6:-0.765972 7:-0.802502 8:-0.65421 
-0 1 1 1 0 0 0 0 0 0 0 0 0 0 1 0 0 0 0 0 0 0 0 0 0 0 0 2:-0.189189 3:-0.193277 4:-0.80531 5:-0.78856 6:-0.832549 7:-0.849901 8:-0.796712 
-0 0 0 1 0 0 0 0 0 0 0 0 0 0 1 0 0 0 0 0 0 0 0 0 0 0 0 1:1 2:-0.175676 3:-0.176471 4:-0.823009 5:-0.798831 6:-0.825824 7:-0.853851 8:-0.823617 
-0 1 0 1 0 0 0 0 0 0 0 0 0 0 1 0 0 0 0 0 0 0 0 0 0 0 0 1:1 2:-0.0945946 3:-0.0756303 4:-0.814159 5:-0.764123 6:-0.796234 7:-0.806452 8:-0.783757 
-1 1 1 1 0 0 0 1 1 1 0 1 0 0 0 0 0 0 0 0 0 0 0 0 0 0 0 2:0.0405405 3:0.0756303 4:-0.787611 5:-0.653267 6:-0.704775 7:-0.769585 8:-0.664175 
-0 1 1 1 0 0 0 1 1 1 0 1 0 0 0 0 0 0 0 0 0 0 0 0 0 0 0 1:-1 2:0.108108 3:0.109244 4:-0.814159 5:-0.607579 6:-0.603228 7:-0.727452 8:-0.737917 
-0 1 0 1 0 0 0 0 0 0 0 0 0 0 1 0 0 0 0 0 0 0 0 0 0 0 0 1:1 2:-0.0810811 3:-0.0756303 4:-0.823009 5:-0.72481 6:-0.742434 7:-0.802502 8:-0.798705 
-0 1 1 1 0 0 0 0 1 0 0 0 0 0 0 0 0 0 0 0 0 0 0 0 0 0 0 1:1 2:0.0135135 3:-0.00840336 4:-0.761062 5:-0.651496 6:-0.704775 7:-0.752469 8:-0.72297 
-0 1 1 1 0 0 0 0 1 0 0 0.29020649726157882 0 0 0 0 0 0 0 0 0 0 0 0 0 0 0 1:1 2:0.0810811 3:-0.00840336 4:-0.787611 5:-0.653976 6:-0.72764 7:-0.658986 8:-0.733931 
-1 1 1 1 0 1 0 1 1 1 1 1 0 0 0 0 1 0 0 0 0 0 0 0 0 0 0 2:0.216216 3:0.193277 4:-0.79646 5:-0.452807 6:-0.441829 7:-0.572087 8:-0.644245 
-0 1 1 1 0 0 0 0 1 0 0 0 0 0 0 0 0 0 0 0 0 0 0 0 0 0 0 1:1 2:0.027027 3:-0.00840336 4:-0.761062 5:-0.621392 6:-0.61735 7:-0.776169 8:-0.738914 
-0 0 0 0 0 0 0 0 0 0 0 0 1 1 1 0 0 0 0 0 0 0 0 0 0 0 0 1:1 2:-0.310811 3:-0.310924 4:-0.849558 5:-0.862228 6:-0.878278 7:-0.889401 8:-0.893373 
-0 0 0 1 0 0 0 0 0 0 0 0 1 0 1 0 0 0 0 0 0 0 0 0 0 0 0 1:1 2:-0.216216 3:-0.243697 4:-0.840708 5:-0.862582 6:-0.885003 7:-0.906517 8:-0.882412 
-0 1 0 1 0 0 0 0 0 0 0 0 0 0 1 0 0 0 0 0 0 0 0 0 0 0 0 1:1 2:-0.027027 3:-0.0588235 4:-0.80531 5:-0.764831 6:-0.819099 7:-0.797235 8:-0.810663 
-0 1 0 1 0 0 0 0 0 0 0 0 0 0 1 0 0 0 0 0 0 0 0 0 0 0 0 1:1 2:-0.027027 3:-0.092437 4:-0.823009 5:-0.742164 6:-0.767317 7:-0.810402 8:-0.78575 
-1 1 1 1 0 1 0 1 1 1 0 1 0 0 0 0 0 0 0 0 0 0 0 0 0 0 0 1:-1 2:0.175676 3:0.176471 4:-0.778761 5:-0.510891 6:-0.561533 7:-0.593153 8:-0.643249 
-0 0 0 1 0 0 0 0 0 0 0 0 0 0 1 0 0 0 0 0 0 0 0 0 0 0 0 1:1 2:-0.135135 3:-0.142857 4:-0.849558 5:-0.776873 6:-0.795562 7:-0.868334 8:-0.816642 
-0 0 0 1 0 0 0 0 0 0 0 0 0 0 1 0 0 0 0 0 0 0 0 0 0 0 0 1:1 2:-0.0945946 3:-0.159664 4:-0.823009 5:-0.814061 6:-0.866846 7:-0.828835 8:-0.833582 
-0 1 1 1 0 0 0 0 1 0 0 0 0 0 0 0 0 0 0 0 0 0 0 0 0 0 0 1:1 2:0.0945946 3:-0.0588235 4:-0.778761 5:-0.630246 6:-0.670477 7:-0.712969 8:-0.714001 
-0 1 0 1 0 0 0 0 0 0 0 0 0 0 1 0 0 0 0 0 0 0 0 0 0 0 0 1:1 2:-0.0675676 3:-0.159664 4:-0.823009 5:-0.759518 6:-0.780094 7:-0.797235 8:-0.831589 
-0 1 1 1 0 0 0 0 1 0 0 0 0 0 0 0 0 0 0 0 0 0 0 0 0 0 0 1:1 2:0.0945946 3:-0.00840336 4:-0.823009 5:-0.633788 6:-0.683255 7:-0.665569 8:-0.751868 
-0 1 1 1 0 0 0 0 1 0 0 0 0 0 1 0 0 0 0 0 0 0 0 0 0 0 0 1:-1 2:-0.256757 3:-0.294118 4:-0.840708 5:-0.861874 6:-0.903161 7:-0.905201 8:-0.849527 
-0 0 0 0 0 0 0 0 0 0 0 0 1 1 1 0 0 0 0 0 0 0 0 0 0 0 0 1:1 2:-0.310811 3:-0.411765 4:-0.858407 5:-0.902249 6:-0.925353 7:-0.905201 8:-0.91131 
-0 0 0 1 0 0 0 0 0 0 0 0 1 0 1 0 0 0 0 0 0 0 0 0 0 0 0 1:1 2:-0.202703 3:-0.243697 4:-0.840708 5:-0.846998 6:-0.867518 7:-0.857801 8:-0.880419 
-0 0 0 1 0 0 0 0 0 0 0 0 0 0 1 0 0 0 0 0 0 0 0 0 0 0 0 1:1 2:-0.148649 3:-0.142857 4:-0.849558 5:-0.757747 6:-0.757902 7:-0.818302 8:-0.845541 
-0 0 0 1 0 0 0 0 0 0 0 0 0 0 1 0 0 0 0 0 0 0 0 0 0 0 0 1:1 2:-0.148649 3:-0.210084 4:-0.823009 5:-0.799894 6:-0.832549 7:-0.834101 8:-0.841555 
-0 0 0 1 0 0 0 0 0 0 -0 0 0 0 1 0 0 0 0 0 0 0 0 0 0 0 0 1:1 2:-0.108108 3:-0.176471 4:-0.849558 5:-0.786435 6:-0.799597 7:-0.868334 8:-0.827603 
-0 -0 1 1 0 0 0 0 1 1 0 1 0 0 0 0 0 0 0 0 0 0 0 0 0 0 0 2:0.22973 3:0.226891 4:-0.761062 5:-0.52187 6:-0.656355 7:-0.628703 8:-0.584454 
-0 -1 1 1 0 0 0 0 0 0 0 0 0 0 0 0 0 0 0 0 0 0 0 0 0 0 0 1:-1 2:0.0810811 3:0.0588235 4:-0.778761 5:-0.640517 6:-0.710155 7:-0.705069 8:-0.674141 
-0 -1 0 1 0 0 0 0 0 0 0 0 0 0 0 0 0 0 0 0 0 0 0 0 0 0 0 1:-1 2:0.0135135 3:-0.109244 4:-0.823009 5:-0.731539 6:-0.772024 7:-0.803818 8:-0.773792 
-0 -0 1 1 0 0 0 0 0 0 0 0 0 0 0 0 0 0 0 0 0 0 0 0 0 0 0 2:0.283784 3:0.210084 4:-0.761062 5:-0.460599 6:-0.573638 7:-0.448321 8:-0.604385 
-0 -1 1 1 0 0 0 0 0 0 0 0 0 0 1 0 0 0 0 0 0 0 0 0 0 0 0 1:-1 2:-0.243243 3:-0.210084 4:-0.840708 5:-0.769435 6:-0.821116 7:-0.774852 8:-0.823617 
-0 -1 0 1 0 0 0 0 0 0 0 0 0 0 1 0 0 0 0 0 0 0 0 0 0 0 0 2:0.0135135 3:-0.0588235 4:-0.814159 5:-0.700372 6:-0.750504 7:-0.761685 8:-0.773792 
-0 -1 1 1 0 0 0 0 0 0 0 0 0 0 0 0 0 0 0 0 0 0 0 0 0 0 0 1:-1 2:0.0675676 3:0.0588235 4:-0.787611 5:-0.590933 6:-0.607263 7:-0.403555 8:-0.723966 
-0 -0 1 1 0 0 0 0 1 0 0 0 0 0 0 0 0 0 0 0 0 0 0 0 0 0 0 2:0.216216 3:0.243697 4:-0.716814 5:-0.409598 6:-0.524546 7:-0.439105 8:-0.514699 
-0 -0 1 1 0 0 0 0 0 0 0 0 0 0 0 0 0 0 0 0 0 0 0 0 0 0 0 1:-1 2:0.162162 3:0.176471 4:-0.80531 5:-0.558704 6:-0.591123 7:-0.579987 8:-0.65421 
-1 -0 1 0 1 1 1 1 1 1 1 1 0 0 0 0 1 0 0 0 0 0 0 0 0 0 0 1:-1 2:0.405405 3:0.411765 4:-0.752212 5:-0.332743 6:-0.513786 7:-0.503621 8:-0.375187 
-0 -0 1 1 0 0 0 0 1 1 0 1 0 0 0 0 0 0 0 0 0 0 0 0 0 0 0 2:0.351351 3:0.310924 4:-0.752212 5:-0.334868 6:-0.484196 7:-0.337722 8:-0.434978 
-0 -1 1 1 0 0 0 0 0 0 0 0 0 0 0 0 0 0 0 0 0 0 0 0 0 0 0 2:0.0405405 3:0.00840336 4:-0.769912 5:-0.635205 6:-0.704775 7:-0.701119 8:-0.674141 
-1 -0 1 0.80227640996065619 0 1 0.73973889059950448 1 1 1 1 1 0 0 0 0 1 0 0 0 0 0 0 0 0 0 0 1:-1 2:0.243243 3:0.277311 4:-0.734513 5:-0.48787 6:-0.639543 7:-0.636603 8:-0.504733 
-0 -0.48180857993400689 1 1 0 0 0 1 1 0 0 1 0 0 0 0 0 0 0 0 0 0 0 0 0 0 0 2:0.175676 3:0.12605 4:-0.761062 5:-0.552683 6:-0.690652 7:-0.529954 8:-0.604385 
-0 -1 1 1 0 0 0 0 0 1 0 1 0 0 0 0 0 0 0 0 0 0 0 0 0 0 0 2:-0.027027 3:0.142857 4:-0.814159 5:-0.743935 6:-0.818426 7:-0.743252 8:-0.743896 
-0 -0 1 1 0 0 0 0 0 0 0 0 0 0 0 0 0 0 0 0 0 0 0 0 0 0 0 1:-1 2:0.135135 3:0.142857 4:-0.778761 5:-0.61785 6:-0.68191 7:-0.647136 8:-0.694071 
-1 -1 1 0 0 0 0 1 0.57777368776150273 1 0 1 0 0 0 0 0 0 0 0 0 0 0 0 0 0 0 1:-1 2:0.0540541 3:0.0252101 4:-0.814159 5:-0.696122 6:-0.770007 7:-0.719552 8:-0.65421 
-0 -1 0 1 0 0 0 0 0 0 0 0 1 1 1 0 0 0 0 0 0 0 0 0 0 0 0 1:1 2:-0.027027 3:-0.109244 4:-0.858407 5:-0.765893 6:-0.801614 7:-0.834101 8:-0.793722 
-1 -1 1 0 0 1 0 1 1 1 1 1 0 0 0 0 1 0 0 0 0 0 0 0 0 0 0 1:-1 2:-0.0540541 3:-0.00840336 4:-0.814159 5:-0.723039 6:-0.826496 7:-0.835418 8:-0.674141 
-1 -0 1 1 1 1 1 1 1 1 1 1 0 0 0 0 1 0 0 0 0 0 0 0 0 0 0 2:0.310811 3:0.260504 4:-0.734513 5:-0.376306 6:-0.535306 7:-0.548387 8:-0.385152 
-0 -1 1 1 0 0 0 0 0 0 0 0 0 0 0 0 0 0 0 0 0 0 0 0 0 0 0 2:0.0675676 3:0.0420168 4:-0.814159 5:-0.703559 6:-0.782112 7:-0.728769 8:-0.723966 
-0 -1 0 1 0 0 0 0 0 1 0 0 0 0 1 0 0 0 0 0 0 0 0 0 0 0 0 2:-0.0135135 3:-0.00840336 4:-0.778761 5:-0.715601 6:-0.765972 7:-0.835418 8:-0.745889 
-0 -1 0 1 0 0 0 0 1 0 0 0 1 1 1 0 0 0 0 0 0 0 0 0 0 0 0 1:-1 2:-0.27027 3:-0.327731 4:-0.840708 5:-0.859394 6:-0.874916 7:-0.923634 8:-0.877429 
-0 -1 0.57925651655946797 1 0 0 0 0 0 1 0 1 0 0 1 0 0 0 0 0 0 0 0 0 0 0 0 2:-0.108108 3:-0.092437 4:-0.80531 5:-0.749602 6:-0.798252 7:-0.835418 8:-0.769806 
-0 -1 1 1 0 0 0 0 1 1 0 0 0 0 1 0 0 0 0 0 0 0 0 0 0 0 0 1:-1 2:-0.189189 3:-0.226891 4:-0.831858 5:-0.822206 6:-0.872226 7:-0.849901 8:-0.818635 
-0 -1 1 1 0 1 0 0 1 0 0.43986287177769834 0.032941231052143721 1 1 1 0.035231330514624452 0.41248095728544498 0 0.97450589832947354 1 0 0.053250247127394283 0 0.9906084035972843 0 0 0 1:1 2:-0.445946 3:-0.495798 4:-0.858407 5:-0.911457 6:-0.931406 7:-0.898618 8:-0.919283 
-1 -0 1 0 0 0 0 1 1 1 0 1 0 0 0 0 0 0 0 0 0 0 0 0 0 0 0 2:0.432432 3:0.495798 4:-0.672566 5:-0.209138 6:-0.370545 7:-0.320606 8:-0.335326 
-1 -0 1 0.31564616496095405 0 0 0 1 1 1 0 1 0 0 0 0 0 0 0 0 0 0 0 0 0 0 0 2:0.378378 3:0.361345 4:-0.699115 5:-0.340889 6:-0.510424 7:-0.287689 8:-0.425012 
-0 -1 1 1 0 0 0 0 0 0 0 0 0 0 1 0 0 0 0 0 0 0 0 0 0 0 0 2:0.0135135 3:-0.0252101 4:-0.787611 5:-0.706393 6:-0.778749 7:-0.751152 8:-0.733931 
-0.2671764416504005 -1 1 1 0 0 0 1 0 1 0 1 0 0 1 0 0 0 0 0 0 0 0 0 0 0 0 2:-0.0135135 3:-0.0420168 4:-0.752212 5:-0.659996 6:-0.751177 7:-0.715602 8:-0.684106 
-0 -1 1 1 0 0 0 1 1 1 0 1 1 1 1 0 0 0 0 0 0 0 0 0 0 0 0 1:1 2:-0.121622 3:-0.176471 4:-0.80531 5:-0.778289 6:-0.854741 7:-0.824885 8:-0.763827 
-1 -0 1 1 0 0 0 1 1 1 0 1 0 0 0 0 0 0 0 0 0 0 0 0 0 0 0 1:-1 2:0.148649 3:0.176471 4:-0.752212 5:-0.565433 6:-0.677202 7:-0.644503 8:-0.59442 
-0 -1 1 1 0 0 0 0 0 0 0 0 0 0 1 0 0 0 0 0 0 0 0 0 0 0 0 3:-0.092437 4:-0.778761 5:-0.679122 6:-0.761264 7:-0.705069 8:-0.723966 
-0 -1 1 1 0 0 0 0.57693710270961107 0 1 0 1 0 0 0 0 0 0 0 0 0 0 0 0 0 0 0 2:0.121622 3:0.0756303 4:-0.734513 5:-0.593767 6:-0.705447 7:-0.62212 8:-0.624315 
-0 -1 1 1 0 0 0 0 0 1 0 0 0 0 0 0 0 0 0 0 0 0 0 0 0 0 0 2:0.148649 3:0.0588235 4:-0.761062 5:-0.682663 6:-0.770679 7:-0.723502 8:-0.694071 
-0 -1 1 1 0 0.091025906860896816 0 0 1 0 0 0 1 1 1 0 0 0 0 1 0 0 0 0 0 0 0 1:1 2:-0.405405 3:-0.428571 4:-0.858407 5:-0.913582 6:-0.936113 7:-0.917051 8:-0.923269 
-0 -1 1 1 0 0 0 0 1 1 0 0 1 1 1 0 0 0 0 1 0 0 0 0 0 0 0 1:1 2:-0.22973 3:-0.260504 4:-0.849558 5:-0.861519 6:-0.901143 7:-0.892034 8:-0.863478 
-1 -0 1 0 1 1 1 1 1 1 1 1 0 0 0 1 1 0.75446370284579012 0 0 0.1786215270758974 0.4535284980819948 0 0 0 0 0 1:-1 2:0.0675676 3:0.12605 4:-0.734513 5:-0.551266 6:-0.707465 7:-0.768269 8:-0.494768 
-0 -1 1 1 0 0 0 0 0 0.95764607024977622 0 1 0 0 0.70698907171933278 0 0 0 0 0 0 0 0 0 0 0 0 2:0.027027 3:0.00840336 4:-0.787611 5:-0.683018 6:-0.763282 7:-0.727452 8:-0.704036 
-1 -1 1 0 0.84289090164624303 1 1 1 1 1 1 1 0 0 0 0.0472375972990444 1 0 0 0 0 0.85241830985948186 0 0 0 0 0 1:-1 2:-0.0135135 3:0.00840336 4:-0.778761 5:-0.663184 6:-0.823806 7:-0.786702 8:-0.624315 
-0 -1 0.072718177965712838 1 0 0 0 0 0 0 0 0 0.5197708314006263 0 1 0 0 0 0 0 0 0 0 0 0 0 0 1:-1 2:-0.202703 3:-0.243697 4:-0.814159 5:-0.835665 6:-0.879623 7:-0.847268 8:-0.853513 
-0 -1 0 1 0 0 0 0 0 0 0 0 0.42242536140251002 0 1 0 0 0 0 0 0 0 0 0 0 0 0 2:-0.108108 3:-0.159664 4:-0.831858 5:-0.75456 6:-0.805649 7:-0.765635 8:-0.803687 
-1 -0 1 1 0 1 1 1 1 1 1 1 0 0 0 0 1 0 0 0 0 1 0 0 0 0 0 2:0.216216 3:0.226891 4:-0.716814 5:-0.465911 6:-0.632145 7:-0.545754 8:-0.454908 
-0 -0 1 1 0 0 0 0 1 0 0 0 0 0 0 0 0 0 0 0 0 0 0 0 0 0 0 1:-1 2:0.364865 3:0.344538 4:-0.699115 5:-0.34266 6:-0.452589 7:-0.319289 8:-0.564524 
-0 -1 0.53556430874793504 1 0 0 0 0 0 0 0 0 0 0 0 0 0 0 0 0 0 0 0 0 0 0 0 2:0.027027 3:0.0588235 4:-0.814159 5:-0.652559 6:-0.710827 7:-0.673469 8:-0.733931 
-0 -1 0 1 0 0 0 0 0 0 0 0 0 0 1 0 0 0 0 0 0 0 0 0 0 0 0 1:1 2:0.0540541 3:0.0756303 4:-0.787611 5:-0.667788 6:-0.702757 7:-0.687953 8:-0.723966 
-0 -1 0 1 0 0 0 0 1 0 0 0 1 1 1 0 0 0 0 0 0 0 0 0 0 0 0 1:1 2:-0.216216 3:-0.193277 4:-0.831858 5:-0.824332 6:-0.856759 7:-0.857801 8:-0.843548 
-0 -1 1 1 0 0 0 0 0 0 0 0 0 0 0 0 0 0 0 0 0 0 0 0 0 0 0 2:0.108108 3:0.0420168 4:-0.787611 5:-0.584558 6:-0.638198 7:-0.656353 8:-0.65421 
-1 -0 1 0 0 0 0 1 1 1 0 1 0 0 0 0 0 0 0 0 0 0 0 0 0 0 0 1:-1 2:0.189189 3:0.344538 4:-0.761062 5:-0.489641 6:-0.604573 7:-0.573404 8:-0.534629 
-0 -1 0 1 0 0 0 0 0 0 0 0 0 0 1 0 0 0 0 0 0 0 0 0 0 0 0 1:-1 2:-0.148649 3:-0.176471 4:-0.840708 5:-0.785019 6:-0.809011 7:-0.831468 8:-0.833582 
-1 -0 1 1 0.56242809041962805 1 1 1 1 1 1 1 0 0 0 0.70467372507872938 1 1 0 0 0.00074941024416519397 0.0069271642850688396 0 0 0 0.014358418308116011 0 2:0.310811 3:0.344538 4:-0.663717 5:-0.495661 6:-0.620713 7:-0.661619 8:-0.454908 
-0 -1 1 1 0 0 0 0 1 1 0 1 1 1 1 0 0 0 0 1 0 0 0 0 0 0 0 1:1 2:-0.22973 3:-0.243697 4:-0.814159 5:-0.860457 6:-0.907868 7:-0.882818 8:-0.843548 
-0 -0 1 1 0 0 0 0 1 0 0 0 0 0 0 0 0 0 0 0 0 0 0 0 0 0 0 2:0.22973 3:0.294118 4:-0.761062 5:-0.446432 6:-0.580363 7:-0.549704 8:-0.567514 
-0 -1 0 1 0 0 0 0 0 0 0 0 1 0 1 0 0 0 0 0 0 0 0 0 0 0 0 1:1 2:-0.0405405 3:-0.0420168 4:-0.787611 5:-0.748185 6:-0.798252 7:-0.831468 8:-0.794718 
-0 -1 1 1 0 0 0 0 0 1 0 0 0 0 1 0 0 0 0 0 0 0 0 0 0 0 0 2:0.0540541 3:-0.00840336 4:-0.79646 5:-0.703205 6:-0.790854 7:-0.761685 8:-0.734928 
-0 -1 0 1 0 0 0 0 0 0 0 0 0 0 1 0 0 0 0 0 0 0 0 0 0 0 0 1:-1 2:-0.121622 3:-0.210084 4:-0.79646 5:-0.803435 6:-0.851379 7:-0.849901 8:-0.853513 
-0 -1 1 1 0 0 0 0 1 0 0 0 1 1 1 0 0 0 0 1 0 0 0 0 0 0 0 1:1 2:-0.216216 3:-0.310924 4:-0.79646 5:-0.846998 6:-0.875588 7:-0.884134 8:-0.863478 
-0 -1 1 1 0 0 0 0 1 1 0 0 0 0 1 0 0 0 0 0 0 0 0 0 0 0 0 1:-1 2:-0.162162 3:-0.176471 4:-0.831858 5:-0.831415 6:-0.882313 7:-0.845951 8:-0.833582 
-0 -1 0 1 0 0 0 0 0 0 0 0 0 0 1 0 0 0 0 0 0 0 0 0 0 0 0 2:-0.027027 3:-0.0588235 4:-0.80531 5:-0.732247 6:-0.773369 7:-0.774852 8:-0.783757 
-0 -1 0 1 0 0 0 0 0 0 0 0 0 0 1 0 0 0 0 0 0 0 0 0 0 0 0 1:1 2:0.108108 3:0.12605 4:-0.778761 5:-0.582787 6:-0.615333 7:-0.63002 8:-0.763827 
-0 -1 0 1 0 0 0 0 0 0 0 0 1 0 1 0 0 0 0 0 0 0 0 0 0 0 0 2:-0.202703 3:-0.210084 4:-0.79646 5:-0.824332 6:-0.852051 7:-0.851218 8:-0.853513 
-1 -0 1 1 0 0 0 1 1 1 0 1 0 0 0 0 0 0 0 0 0 0 0 0 0 0 0 2:0.283784 3:0.260504 4:-0.752212 5:-0.496016 6:-0.656355 7:-0.511521 8:-0.554559 
-0 -1 0 1 0 0 0 0 1 0 0 0 1 0 1 0 0 0 0 0 0 0 0 0 0 0 0 1:-1 2:-0.27027 3:-0.277311 4:-0.840708 5:-0.86329 6:-0.896436 7:-0.881501 8:-0.885401 
-0 -1 1 0 0 0 0 0.16086343541235049 1 1 0 1 1 1 1 0 0 0 0 1 0 0 0 0 0 0 0 1:-1 2:-0.324324 3:-0.378151 4:-0.867257 5:-0.891624 6:-0.937458 7:-0.907834 8:-0.883408 
-0 -1 1 1 0 0 0 0 1 1 0 0 1 1 1 0 0 0 0 1 0 0 0 0 0 0 0 1:-1 2:-0.364865 3:-0.428571 4:-0.867257 5:-0.909687 6:-0.940148 7:-0.913101 8:-0.915296 
-0 -1 0 1 0 0 0 0 0 0 0 0 0 0 1 0 0 0 0 0 0 0 0 0 0 0 0 1:1 2:0.0810811 3:0.0420168 4:-0.79646 5:-0.65433 6:-0.701412 7:-0.676103 8:-0.736921 
-0 -1 1 1 0 0 0 0 0 0 0 0 0 0 1 0 0 0 0 0 0 0 0 0 0 0 0 1:1 2:0.0675676 3:0.0252101 4:-0.769912 5:-0.631309 6:-0.735037 7:-0.720869 8:-0.674141 
-0 -1 1 0.23737802598489172 0 0 0 1 1 1 0 1 0 0 1 0 0 0 0 0 0 0 0 0 0 0 0 1:-1 2:-0.22973 3:-0.193277 4:-0.823009 5:-0.852311 6:-0.912576 7:-0.863068 8:-0.853513 
-0 -1 0 1 0 0 0 0 0 0 0 0 0 0 0 0 0 0 0 0 0 0 0 0 0 0 0 1:-1 2:0.0135135 3:-0.0420168 4:-0.769912 5:-0.738268 6:-0.785474 7:-0.791968 8:-0.793722 
-1 -1 1 1 0 0 1 1 0 0.14441775738310239 0 1 0 0 0 0 0.45453273243858799 0.10836909226708509 0 0 0 0 0 0 0 0 0 1:-1 2:0.0945946 3:0.0756303 4:-0.743363 5:-0.451036 6:-0.710827 7:-0.658986 8:-0.664175 
-0 -1 1 1 0 0 0 0 0 1 0 0.077923627021066033 0 0 0 0 0 0 0 0 0 0 0 0 0 0 0 2:0.0810811 3:0.0252101 4:-0.778761 5:-0.684788 6:-0.773369 7:-0.788018 8:-0.723966 
-0 -1 0 1 0 0 0 0 0 0 0 0 0 0 1 0 0 0 0 0 0 0 0 0 0 0 0 1:-1 2:-0.175676 3:-0.210084 4:-0.787611 5:-0.800956 6:-0.843309 7:-0.828835 8:-0.833582 
-0 -1 0 1 0 0 0 0 0 0 0 0 0 0 1 0 0 0 0 0 0 0 0 0 0 0 0 3:-0.0756303 4:-0.814159 5:-0.680893 6:-0.759247 7:-0.730086 8:-0.757848 
-0 -1 0.97406016301103737 1 0 0 0 0 0 0 0 0 0 0 1 0 0 0 0 0 0 0 0 0 0 0 0 1:-1 2:-0.121622 3:-0.176471 4:-0.778761 5:-0.706039 6:-0.744452 7:-0.764319 8:-0.768809 
-0 -1 0 1 0 0 0 0 1 0.59789245185442585 0 0 1 1 1 0 0 0 0 0 0 0 0 0 0 0 0 1:-1 2:-0.256757 3:-0.327731 4:-0.858407 5:-0.865769 6:-0.893746 7:-0.899934 8:-0.877429 
-0 -0 1 1 0 0 0 0 0 0 0 0 0 0 0 0 0 0 0 0 0 0 0 0 0 0 0 1:-1 2:0.202703 3:0.109244 4:-0.752212 5:-0.534266 6:-0.667115 7:-0.465438 8:-0.684106 
-0 -1 1 0 0 0 0 0 1 1 0 0.90197167229285857 1 0 1 0 0 0 0 0 0 0 0 0 0 0 0 1:-1 2:-0.27027 3:-0.277311 4:-0.831858 5:-0.861874 6:-0.911903 7:-0.869651 8:-0.863478 
-0 -1 1 1 0 0 0 0 0 0 0 0 0 0 0 0 0 0 0 0 0 0 0 0 0 0 0 1:-1 2:0.027027 3:-0.0420168 4:-0.761062 5:-0.674163 6:-0.776059 7:-0.585253 8:-0.763827 
-1 -1 1 1 0 0 0 1 0.54509425628438335 1 0 1 0 0 0 0 0 0 0 0 0 0 0 0 0 0 0 2:0.189189 3:0.12605 4:-0.769912 5:-0.593767 6:-0.735709 7:-0.658986 8:-0.635277 
-0 -1 1 1 0 0 0 0 0 0 0 0 0 0 0 0 0 0 0 0 0 0 0 0 0 0 0 2:0.162162 3:0.12605 4:-0.716814 5:-0.545245 6:-0.66846 7:-0.468071 8:-0.67713 
-0.79263757545562075 -1 1 1 0 0 0 1 0 0.37187240858805803 0 1 0 0 0 0 0 0 0 0 0 0 0 0 0 0 0 1:-1 2:0.0675676 3:0.0588235 4:-0.681416 5:-0.640163 6:-0.743779 7:-0.662936 8:-0.679123 
-0 -1 1 1 0 0 0 0 0 0 0 0 0 0 0 0 0 0 0 0 0 0 0 0 0 0 0 1:-1 2:-0.0135135 3:-0.0588235 4:-0.80531 5:-0.72233 6:-0.790182 7:-0.748519 8:-0.759841 
-1 -1 1 0 0 1 0 1 1 1 0 1 0 0 0 0 0 0 0 0 0 0 0 0 0 0 0 1:-1 2:-0.0540541 3:-0.0756303 4:-0.769912 5:-0.689393 6:-0.796907 7:-0.755102 8:-0.694071 
-0 -1 0 1 0 0 0 0 0 0 0 0 0 0 1 0 0 0 0 0 0 0 0 0 0 0 0 1:1 2:-0.0135135 3:0.0420168 4:-0.79646 5:-0.646538 6:-0.67384 7:-0.780118 8:-0.711011 
-0 -1 1 1 0 0 0 0 0 0 0 0 0 0 1 0 0 0 0 0 0 0 0 0 0 0 0 1:1 2:0.0810811 3:0.0420168 4:-0.778761 5:-0.614308 6:-0.693342 7:-0.689269 8:-0.660189 
-0 -1 0 1 0 0 0 0 0 0 0 0 0 0 1 0 0 0 0 0 0 0 0 0 0 0 0 1:1 2:0.108108 3:0.00840336 4:-0.814159 5:-0.648663 6:-0.70881 7:-0.748519 8:-0.699053 
-0 -1 1 1 0 0 0 0 0 0 0 0 0 0 0 0 0 0 0 0 0 0 0 0 0 0 0 2:0.135135 3:0.193277 4:-0.778761 5:-0.466265 6:-0.550101 7:-0.661619 8:-0.576482 
-0 -0 1 1 0 0 0 0 0 0 0 0 0 0 0 0 0 0 0 0 0 0 0 0 0 0 0 1:-1 2:0.148649 3:0.159664 4:-0.778761 5:-0.578183 6:-0.638198 7:-0.665569 8:-0.672147 
-0 -1 1 1 0 0 0 0 0 0 0 0 0 0 0 0 0 0 0 0 0 0 0 0 0 0 0 1:-1 2:0.256757 3:0.176471 4:-0.778761 5:-0.370285 6:-0.353732 7:-0.497038 8:-0.600399 
-0 -0 1 1 0 0 0 0 0 0 0 0 0 0 0 0 0 0 0 0 0 0 0 0 0 0 0 1:-1 2:0.297297 3:0.277311 4:-0.743363 5:-0.315389 6:-0.330868 7:-0.55892 8:-0.527653 
-1 -0 1 0 0 0 0 1 1 1 0 1 0 0 0 0 0 0 0 0 0 0 0 0 0 0 0 1:-1 2:0.337838 3:0.344538 4:-0.734513 5:-0.327076 6:-0.477471 7:-0.433838 8:-0.455904 
-0 -0 1 1 0 0 0 0 1 0 0 0 0 0 0 0 0 0 0 0 0 0 0 0 0 0 0 2:0.351351 3:0.378151 4:-0.752212 5:-0.322826 6:-0.406859 7:-0.523371 8:-0.463876 
-1 -0 1 0 0 0 0 1 1 1 0 1 0 0 0 0 0 0 0 0 0 0 0 0 0 0 0 1:-1 2:0.391892 3:0.411765 4:-0.707965 5:-0.238534 6:-0.390047 7:-0.358789 8:-0.386148 
-1 -0 1 0 0 1 1 1 1 1 1 1 0 0 0 0 1 0 0 0 0 0 0 0 0 0 0 1:-1 2:0.432432 3:0.344538 4:-0.716814 5:-0.219763 6:-0.435104 7:-0.207373 8:-0.355257 
-0 -0 1 0 0 0 0 0 1 1 0 1 0 0 0 0 0 0 0 0 0 0 0 0 0 0 0 1:-1 2:0.459459 3:0.529412 4:-0.734513 5:-0.0834071 6:-0.268325 7:-0.128374 8:-0.365222 
-0 -0 1 0 0 0 0 0 1 1 0 0 0 0 0 0 0 0 0 0 0 0 0 0 0 0 0 1:-1 2:0.472973 3:0.495798 4:-0.707965 5:-0.0756154 6:-0.146604 7:-0.331139 8:-0.375187 
-1 -0 1 0 0 1 0 1 1 1 0 1 0 0 0 0 1 0 0 0 0 0 0 0 0 0 0 1:-1 2:0.513514 3:0.529412 4:-0.699115 5:-0.0412608 6:-0.168796 7:-0.198157 8:-0.22571 
-0 -0 1 0 0 0 0 0 1 0 0 0 0 0 0 0 0 0 0 0 0 0 0 0 0 0 0 2:0.513514 3:0.445378 4:-0.707965 5:-0.0844696 6:-0.102892 7:-0.315339 8:-0.461883 
-1 -0 1 0 1 1 1 1 1 1 1 1 0 0 0 1 1 0 0 0 0 0 0 0 0 0 0 1:-1 2:0.567568 3:0.563025 4:-0.707965 5:-0.00301045 6:-0.213181 7:-0.235023 8:-0.195815 
-1 -0 1 0 0.085139162546059563 1 0.67349051324867737 1 1 1 1 1 0 0 0 0 1 0 0 0 0 0 0 0 0 0 0 2:0.621622 3:0.579832 4:-0.725664 5:0.0458651 6:-0.156691 7:-0.104674 8:-0.165919 
-0 -1 1 1 0 0 0 0 0 0 0 0 0 0 0 0 0 0 0 0 0 0 0 0 0 0 0 1:-1 2:0.0810811 3:0.0588235 4:-0.778761 5:-0.621038 6:-0.702757 7:-0.681369 8:-0.704036 
-0 -1 1 1 0 0 0 0 0 0 0 0 0 0 0 0 0 0 0 0 0 0 0 0 0 0 0 2:0.162162 3:0.12605 4:-0.769912 5:-0.523995 6:-0.575656 7:-0.63002 8:-0.647235 
-0 -0.96548732859436281 1 1 0 0 0 0 0 0 0 0 0 0 0 0 0 0 0 0 0 0 0 0 0 0 0 1:-1 2:0.162162 3:0.193277 4:-0.778761 5:-0.546662 6:-0.612643 7:-0.651086 8:-0.694071 
-0 -0 1 1 0 0 0 0 0 0 0 0 0 0 0 0 0 0 0 0 0 0 0 0 0 0 0 2:0.283784 3:0.310924 4:-0.725664 5:-0.299805 6:-0.26967 7:-0.532587 8:-0.56851 
-0 -0 1 1 0 0 0 0 1 1 0 1 0 0 0 0 0 0 0 0 0 0 0 0 0 0 0 2:0.283784 3:0.260504 4:-0.752212 5:-0.427307 6:-0.506389 7:-0.577354 8:-0.454908 
-0 -0 1 1 0 0 0 0 1 0 0 0 0 0 0 0 0 0 0 0 0 0 0 0 0 0 0 2:0.310811 3:0.344538 4:-0.716814 5:-0.316451 6:-0.392737 7:-0.456221 8:-0.456901 
-0 -0 1 0 0 0 0 0 1 0 0 0 0 0 0 0 0 0 0 0 0 0 0 0 0 0 0 1:-1 2:0.351351 3:0.411765 4:-0.716814 5:-0.212325 6:-0.334902 7:-0.278473 8:-0.425012 
-0 -0 1 1 0 0 0 0 1 0 0 0 0 0 0 0 0 0 0 0 0 0 0 0 0 0 0 2:0.351351 3:0.361345 4:-0.716814 5:-0.220117 6:-0.27774 7:-0.419355 8:-0.506726 
-0 -0 1 1 0 0 0 0 1 0 0 0 0 0 0 0 0 0 0 0 0 0 0 0 0 0 0 1:-1 2:0.364865 3:0.462185 4:-0.769912 5:-0.198512 6:-0.213181 7:-0.325872 8:-0.530643 
-0 -0 1 1 0 0 0 0 1 0 0 0 0 0 0 0 0 0 0 0 0 0 0 0 0 0 0 1:-1 2:0.405405 3:0.411765 4:-0.707965 5:-0.142199 6:-0.166106 7:-0.360105 8:-0.456901 
-0 -0 1 1 0 0 0 0 1 0 0 0 0 0 0 0 0 0 0 0 0 0 0 0 0 0 0 2:0.405405 3:0.361345 4:-0.752212 5:-0.289888 6:-0.375252 7:-0.449638 8:-0.501744 
-0 -0 1 1 0 0 0 0 1 0 0 0 0 0 0 0 0 0 0 0 0 0 0 0 0 0 0 1:-1 2:0.405405 3:0.344538 4:-0.734513 5:-0.261909 6:-0.30464 7:-0.420671 8:-0.464873 
-0 -0 1 0 0 0 0 0 1 0 0 0 0 0 0 0 0 0 0 0 0 0 0 0 0 0 0 2:0.432432 3:0.462185 4:-0.734513 5:-0.197804 6:-0.293208 7:-0.304806 8:-0.415047 
-0 -0 1 1 0 0 0 0 1 0 0 0 0 0 0 0 0 0 0 0 0 0 0 0 0 0 0 1:-1 2:0.432432 3:0.411765 4:-0.725664 5:-0.179033 6:-0.232011 7:-0.354839 8:-0.454908 
-0 -0 1 0 0 0 0 0 1 1 0 0 0 0 0 0 0 0 0 0 0 0 0 0 0 0 0 2:0.486486 3:0.495798 4:-0.707965 5:-0.0890738 6:-0.230666 7:-0.202107 8:-0.375187 
-1 -0 1 0 1 1 0 1 1 1 1 1 0 0 0 0 1 0 0 0 0 0 0 0 0 0 0 2:0.486486 3:0.445378 4:-0.646018 5:-0.0239065 6:-0.215198 7:-0.206057 8:-0.203787 
-1 -0 1 0 0 0 0 1 1 1 0 1 0 0 0 0 0 0 0 0 0 0 0 0 0 0 0 1:-1 2:0.554054 3:0.478992 4:-0.716814 5:-0.0777404 6:-0.234701 7:-0.179724 8:-0.260588 
